34 128
34 -0.20348762 -0.1103828 -0.074257 -0.00543194 0.0036711388 0.031236395 -0.04280956 0.129781 -0.061558485 0.081741914 0.16291983 0.07275293 -0.0015056244 0.14043182 0.03225771 -0.21784768 -0.11178231 -0.05735424 -0.14934447 -0.15145576 -0.047491767 -0.010671009 0.16452426 0.065548845 0.004070661 0.15869237 0.17874141 -0.18510534 -0.09733261 0.10524828 0.01516895 0.11850264 0.09453119 0.093233794 -0.13306224 0.07848812 0.1187687 -0.05910092 -0.18100528 -0.034615967 -0.16241051 -0.07020296 0.035096087 -0.021258667 -0.0495746 0.11540113 -0.008089581 -0.18212417 0.00681029 0.069651715 -0.016224395 0.11056355 0.14481032 0.19057988 0.077923805 -0.04766294 0.06533004 -0.2313476 0.025721649 0.13151644 -0.03765472 -0.15631743 -0.20825712 0.18555273 0.05592607 0.074163705 -0.016256804 0.07903475 0.0661717 -0.080855064 0.21361123 -0.0027584939 0.005897519 -0.037002005 0.037268784 0.012264082 -0.12577969 -0.022336228 -0.07677969 0.030573258 -0.2152062 -0.061985772 -0.07685392 -0.00074758905 -0.08864296 -0.05786524 -0.057036277 -0.0177185 -0.16627009 0.15228686 0.12189781 -0.07904001 0.03348512 0.004078157 0.10791999 -0.03157793 -0.0804587 0.023252605 -0.13957925 0.16432351 0.07025901 0.010240283 -0.05585037 -0.22075716 -0.1595163 0.0123108085 0.038280472 0.08159628 0.060097136 -0.056671735 -0.052966263 0.016557269 -0.04955631 0.035647735 0.1438296 -0.05228214 0.058557127 -0.27111205 0.051305838 -0.0029329264 0.19155389 -0.028084086 -0.25575227 -0.010642907 0.060202915 0.12399499 0.0959473 0.16621742
1 -0.076525636 0.045934178 0.000482048 -0.060291763 -0.024097892 0.03990589 -0.1793526 0.15649426 -0.09186788 0.06864163 0.07383859 0.08430935 -0.015487924 0.13702188 0.12676242 -0.052041225 -0.11008663 -0.064813346 -0.21170363 -0.067657895 -0.11229497 -0.020310372 0.06186091 0.017034883 0.024565225 0.12088586 0.20925468 0.030206852 -0.15209317 -0.06524878 -0.038336817 -0.047844697 0.07951815 0.1492966 -0.08024479 0.12119336 0.014908579 -0.072514415 -0.1367557 -0.012893403 -0.19806707 -0.06752841 0.013607093 -0.07721855 -0.17153132 0.021269485 0.060640946 -0.11368444 0.008739778 -0.018285403 0.09209756 0.20745668 0.1598882 0.088703245 0.1449214 -0.084703185 -0.044583693 -0.14907713 0.10986899 0.05923289 -0.09839454 -0.27229562 -0.25475013 0.12036295 -0.023396136 0.15322946 -0.011829076 0.119052336 0.15356249 -0.0803668 0.18182135 -0.013822173 0.053802054 0.12398267 0.061541714 0.09345968 -0.030375913 -0.017627083 -0.023958059 -0.08574307 -0.12779121 -0.0051675825 -0.022315595 -0.06569286 -0.1208878 -0.09235387 -0.014911624 -0.042791985 0.042193133 0.24662924 0.18217212 -0.07196577 -0.07016067 -0.018849224 0.08851781 -0.1491809 -0.11454773 0.052401192 -0.08805488 0.096664995 0.1963869 0.04128941 -0.008339988 -0.11147309 -0.010394341 0.08231623 0.024849607 0.085834846 0.18493368 0.12507723 -0.0693065 0.042021528 -0.13775685 0.036285367 0.088993154 -0.014241246 0.08848421 -0.266559 -0.1296997 0.011252493 0.13722491 -0.13316305 -0.19964857 -0.11361108 0.054318342 0.07856614 0.1304963 0.2559463
33 -0.19392318 -0.08116915 -0.06230766 -0.015647002 -0.001650839 0.03722329 -0.08520965 0.15086672 -0.07201326 0.08826794 0.15838277 0.08506699 0.00040577678 0.15455857 0.055490047 -0.19726603 -0.121851794 -0.0640474 -0.17867929 -0.1462967 -0.06950511 -0.018252544 0.15266451 0.052865013 0.010492566 0.16530149 0.19786358 -0.15169509 -0.11762543 0.07884545 0.012888764 0.0883198 0.09960856 0.11197437 -0.13075887 0.084422 0.10892643 -0.06613505 -0.18253534 -0.036383223 -0.1783022 -0.072669834 0.030003678 -0.03451391 -0.07261882 0.10379244 0.011612963 -0.17277323 0.0055057686 0.05596333 -0.002370025 0.13548438 0.1473954 0.17529412 0.08979075 -0.05947656 0.04439235 -0.22384709 0.040363315 0.12451662 -0.048010014 -0.18018395 -0.22576684 0.18292522 0.043485835 0.09467244 -0.010703692 0.08787391 0.08906998 -0.08236149 0.22112451 0.0023311565 0.01773049 -0.005131491 0.04003208 0.03402703 -0.11297331 -0.02024973 -0.06663868 0.014027539 -0.20919035 -0.053600505 -0.062582806 -0.010281939 -0.09904737 -0.0628543 -0.05531755 -0.02761943 -0.123341665 0.17759015 0.14004777 -0.07507643 0.014453753 -0.0020659727 0.112081364 -0.053813852 -0.08935882 0.029536096 -0.13341117 0.15728284 0.10263324 0.016586693 -0.042207412 -0.21205729 -0.133481 0.02268377 0.037381765 0.083348006 0.08449835 -0.017944383 -0.056411017 0.021240631 -0.06862687 0.038595777 0.14088307 -0.046125155 0.06085067 -0.28530854 0.016779372 0.0012689909 0.18999572 -0.05508537 -0.25245243 -0.032395136 0.05906875 0.12185125 0.10772485 0.19118078
3 -0.09317434 0.034468967 -0.001662876 -0.042347107 -0.0141993 0.03863494 -0.15035348 0.13836901 -0.08415738 0.07138912 0.076022916 0.074827455 -0.016706329 0.123386376 0.10495102 -0.06604404 -0.10927148 -0.05276437 -0.19736518 -0.06623412 -0.09968245 -0.019371802 0.06981202 0.02290219 0.011035418 0.11147138 0.1957391 0.0021650754 -0.1410145 -0.034655705 -0.024572546 -0.015272845 0.06951173 0.13251281 -0.082435094 0.10714648 0.025414769 -0.06878644 -0.13216656 -0.014307382 -0.18907699 -0.07089775 0.021942573 -0.06289782 -0.14818951 0.034379102 0.041792445 -0.120125964 0.011478725 -0.012937751 0.071341336 0.19083595 0.14842819 0.09645704 0.12767516 -0.076412365 -0.027762238 -0.142398 0.0968634 0.05815708 -0.09180358 -0.24776326 -0.24420059 0.12854554 -0.0134836305 0.13664678 -0.0027375717 0.11969275 0.13970649 -0.07400964 0.18663654 -0.018015021 0.040862355 0.1014796 0.054136336 0.08028314 -0.044383332 -0.014102576 -0.038252234 -0.07112533 -0.1332723 -0.013824225 -0.029258268 -0.057109606 -0.10422313 -0.08540857 -0.023024905 -0.03284844 0.01961 0.22935618 0.16000399 -0.07635512 -0.056108173 -0.018017689 0.09098701 -0.12843756 -0.114278585 0.03974661 -0.09042484 0.10769325 0.16546707 0.033812195 -0.010591354 -0.12270109 -0.032612275 0.06309697 0.009454434 0.081589825 0.15745685 0.10158704 -0.06918559 0.03779217 -0.12518929 0.03580931 0.08527405 -0.026135664 0.082789324 -0.25501066 -0.09451363 0.007770774 0.13476638 -0.10682334 -0.20237997 -0.09116917 0.052285254 0.08320824 0.11679574 0.23870978
2 -0.109007746 0.0044282903 -0.016019717 -0.040496815 -0.020069322 0.03550165 -0.13906254 0.13887523 -0.07818042 0.07662099 0.09216561 0.0759373 -0.015480702 0.13138965 0.09219456 -0.08808652 -0.10768725 -0.05846294 -0.19543242 -0.089064136 -0.08832808 -0.0150213335 0.08641833 0.026571803 0.012794702 0.12101619 0.19847748 -0.022785228 -0.13749814 -0.022525476 -0.02325484 0.0021720352 0.079227716 0.13066278 -0.08970322 0.10289254 0.039026212 -0.07001667 -0.14936143 -0.016057957 -0.1885694 -0.072807096 0.02075892 -0.0580747 -0.14028032 0.04345745 0.040964905 -0.13010783 0.0067684557 0.0013298533 0.05959107 0.17983675 0.15636492 0.11377006 0.12569258 -0.06900751 -0.01177275 -0.16284952 0.08376708 0.07198189 -0.0813442 -0.2396801 -0.236879 0.1366415 0.0012060207 0.13155879 -0.010588808 0.11367511 0.12835886 -0.08221697 0.19349307 -0.015466247 0.045970626 0.08396924 0.0515285 0.07586876 -0.052770104 -0.022032559 -0.038652934 -0.05678475 -0.14930482 -0.020854812 -0.036579806 -0.054260343 -0.110250294 -0.08081803 -0.028288517 -0.03268295 -0.012270159 0.22021906 0.16262688 -0.07230547 -0.043885 -0.010081227 0.09421944 -0.11133048 -0.1116248 0.041596517 -0.106765226 0.121063 0.15770888 0.02830404 -0.019798929 -0.13893221 -0.050384708 0.06003735 0.023891935 0.085019544 0.15175633 0.082014576 -0.06702488 0.032494333 -0.11093779 0.03757887 0.101607054 -0.021490801 0.084903166 -0.26965857 -0.08032401 0.003009603 0.14879248 -0.10047815 -0.2153191 -0.07986403 0.054270778 0.092615806 0.11924318 0.22858393
4 -0.06975904 0.052519426 0.006620666 -0.047922734 -0.021386577 0.03895462 -0.17543922 0.1373495 -0.086585894 0.06770598 0.061520346 0.073474094 -0.018203216 0.12477485 0.11546514 -0.034380883 -0.102716364 -0.05871167 -0.20647128 -0.059608743 -0.09882074 -0.024406573 0.052447427 0.013096407 0.017058022 0.108831234 0.19512351 0.032336004 -0.14794362 -0.06437512 -0.036864214 -0.040958554 0.071178004 0.13751844 -0.069288604 0.11461588 0.013338207 -0.0684021 -0.13336469 -0.0133249555 -0.19486818 -0.06695669 0.011688492 -0.07335974 -0.16831066 0.017169489 0.057680424 -0.1065509 0.009071064 -0.02132415 0.087276004 0.20540945 0.15289636 0.079465635 0.14696214 -0.0757346 -0.0385975 -0.13765882 0.10673115 0.05328807 -0.096266754 -0.2629792 -0.24224998 0.1174362 -0.023372017 0.15462337 -0.0043941895 0.12322123 0.15218116 -0.08184076 0.18285064 -0.021160796 0.05535863 0.12311955 0.053210124 0.09066463 -0.032076977 -0.015571808 -0.026914578 -0.08335001 -0.12713996 -0.0025984384 -0.017418545 -0.07198097 -0.11179201 -0.09058497 -0.015852762 -0.045893956 0.05015702 0.2438357 0.16709903 -0.07426652 -0.07105546 -0.01983509 0.08775011 -0.14177439 -0.117256515 0.048545815 -0.08644897 0.09797128 0.19491878 0.03861306 -0.008422811 -0.11018615 -0.008799561 0.07655534 0.015662458 0.07897458 0.17759669 0.12340809 -0.06610846 0.03626057 -0.13959357 0.034638476 0.08017241 -0.0134891635 0.091527745 -0.26226196 -0.13220662 0.008242616 0.12964351 -0.12368656 -0.19080965 -0.10714521 0.04720807 0.0725172 0.12772098 0.2487936
32 -0.1632186 -0.041134376 -0.048076876 -0.031856135 -0.0016847646 0.036938325 -0.09719284 0.14662692 -0.071692236 0.08124435 0.1358181 0.083617516 -0.0076352344 0.14480826 0.07131399 -0.16049673 -0.117933854 -0.058829017 -0.17859417 -0.12863767 -0.08236331 -0.012771422 0.128443 0.04884529 0.01062815 0.1451907 0.19492231 -0.1103683 -0.118819535 0.045931943 -0.003959869 0.060770176 0.0922443 0.112205595 -0.113345735 0.08995488 0.08695015 -0.06688555 -0.16634618 -0.02831563 -0.18131477 -0.0677257 0.03125608 -0.046928614 -0.089545906 0.083010234 0.023706643 -0.16055672 0.0022606843 0.030558662 0.022532608 0.14738098 0.15173063 0.15609413 0.095061705 -0.06254944 0.022989074 -0.20178744 0.058173977 0.10449436 -0.059321202 -0.19934162 -0.23215425 0.16335064 0.027593471 0.101174496 -0.011534004 0.09599484 0.10511494 -0.07041981 0.20062314 0.0010143993 0.018495014 0.021464797 0.046910975 0.039608795 -0.09311907 -0.012263095 -0.060054015 -0.006649065 -0.1805877 -0.039148726 -0.04827117 -0.024009734 -0.09638227 -0.06557723 -0.046131186 -0.029986117 -0.087309256 0.18356644 0.14790173 -0.07582252 0.001607229 -0.0032277303 0.098965146 -0.07671141 -0.089180514 0.031704143 -0.11873481 0.13282074 0.11080987 0.022462431 -0.03497939 -0.18422681 -0.10386373 0.032135703 0.036176942 0.08758031 0.10418308 0.009539626 -0.05434723 0.021026872 -0.084785394 0.030566124 0.12332733 -0.04327027 0.062874794 -0.27146217 -0.0073769907 0.0044049146 0.17177711 -0.06877464 -0.23471153 -0.05491383 0.059071764 0.109040745 0.112834 0.19549046
24 -0.18405451 -0.07122815 -0.060846884 -0.016005987 -0.003983918 0.034262113 -0.09015428 0.14862221 -0.071886875 0.08344429 0.14561556 0.08629891 -0.007261967 0.15250938 0.056335606 -0.18843895 -0.12399152 -0.0665883 -0.17958716 -0.14504422 -0.07222557 -0.015857965 0.14603443 0.050727844 0.01357927 0.15918104 0.2005192 -0.14605106 -0.11754174 0.0678897 -0.0002491842 0.08930192 0.09403156 0.11104959 -0.1323229 0.09147384 0.10333651 -0.060876288 -0.18345901 -0.033407915 -0.18246976 -0.07206933 0.031991348 -0.041043613 -0.08175492 0.09306805 0.011615766 -0.17065707 0.0027607693 0.05287675 0.0024907927 0.13755356 0.15036578 0.17762436 0.097359814 -0.06145771 0.03892993 -0.22017887 0.04799882 0.11440789 -0.0555574 -0.18915343 -0.23016664 0.17364497 0.03445804 0.095013484 -0.014245971 0.09072505 0.094229534 -0.07589072 0.21054527 0.0038836943 0.01890787 -0.002857401 0.048000477 0.03376622 -0.10126995 -0.013896851 -0.06918192 0.008554788 -0.20377563 -0.0457947 -0.063641384 -0.00988696 -0.09898605 -0.06116139 -0.04901077 -0.02850764 -0.11772815 0.16814338 0.13819179 -0.08105434 0.006653938 2.9408497e-05 0.10553854 -0.058596943 -0.09139777 0.03235594 -0.13433495 0.14822963 0.10700081 0.023840772 -0.044129346 -0.20193757 -0.1208977 0.025234634 0.04279048 0.08599798 0.09058375 -0.010673447 -0.058144145 0.01844581 -0.07311012 0.03442177 0.13114059 -0.047090646 0.060676087 -0.27367947 0.013312751 0.0008826727 0.18063122 -0.05069543 -0.24673444 -0.041220684 0.06339391 0.11627864 0.113089114 0.1829699
14 -0.1348393 -0.01903847 -0.029391613 -0.030464971 -0.0072604334 0.03578156 -0.116907656 0.13980415 -0.07289406 0.07600734 0.11008883 0.076056086 -0.008708966 0.13149422 0.075545676 -0.12435597 -0.10663374 -0.05596325 -0.17821266 -0.10296814 -0.075860485 -0.016325958 0.10219737 0.031621184 0.009288897 0.1322815 0.18426627 -0.070875734 -0.11896143 0.019734476 -0.007507703 0.034546673 0.085867845 0.11729292 -0.10332164 0.09630727 0.061966714 -0.06454654 -0.15024251 -0.018644417 -0.17630886 -0.06273799 0.027347872 -0.04828861 -0.10471531 0.06187427 0.03033832 -0.14001162 0.0079861 0.023164896 0.038201783 0.155877 0.14506982 0.12759927 0.10553174 -0.06644962 0.004661028 -0.18010917 0.06946153 0.091857485 -0.06983849 -0.21105802 -0.22410628 0.14839095 0.008610927 0.11140371 -0.010975894 0.104249366 0.11327745 -0.07367775 0.19368964 -0.009585007 0.028208727 0.050163344 0.04279964 0.057948753 -0.070676126 -0.0144296475 -0.049094632 -0.02456316 -0.17134473 -0.029463772 -0.04495023 -0.03288042 -0.09920255 -0.075421885 -0.03431809 -0.033032693 -0.054655485 0.1983952 0.14652525 -0.07522999 -0.023893539 -0.0057631675 0.100002475 -0.08663317 -0.10221259 0.035812743 -0.109826155 0.12821062 0.13330534 0.027497433 -0.02819548 -0.16008312 -0.07368672 0.047205225 0.024429463 0.08151913 0.12516488 0.037690483 -0.06303453 0.028003063 -0.09417179 0.032966185 0.1068318 -0.032067683 0.06719827 -0.26130605 -0.040895957 -0.00037690546 0.15590386 -0.083491266 -0.216561 -0.05907853 0.055139765 0.099424236 0.10656259 0.20654476
7 -0.067012735 0.04719743 -0.007205882 -0.06277244 -0.023291154 0.0478714 -0.19207637 0.16634987 -0.089157484 0.068154775 0.0791224 0.08190329 -0.013720421 0.1433906 0.13098249 -0.048819784 -0.10990128 -0.06910477 -0.21653879 -0.07600422 -0.10871966 -0.021985618 0.049635023 0.018001331 0.031649176 0.11606124 0.20800494 0.030830206 -0.15365806 -0.07243856 -0.044283956 -0.057079293 0.08310022 0.14634688 -0.077914886 0.11917829 0.01374448 -0.07247314 -0.14315075 -0.016323656 -0.19453226 -0.062695436 0.01628538 -0.077935636 -0.17656456 0.021697063 0.072853826 -0.114741884 0.004168543 -0.019137561 0.08788367 0.21393406 0.14983493 0.08542283 0.1398973 -0.07527192 -0.046064325 -0.15055096 0.113855295 0.062186886 -0.08978128 -0.2646906 -0.24159792 0.11839713 -0.030018345 0.15368909 -0.00926596 0.10740893 0.15076923 -0.08585949 0.16864268 -0.007627129 0.064913206 0.12859921 0.06438854 0.09457793 -0.026876107 -0.019235577 -0.015314885 -0.08528908 -0.13526484 0.00667984 -0.009010202 -0.06257867 -0.12362273 -0.09586793 -0.021170843 -0.057373405 0.055017486 0.2414646 0.18547495 -0.06026793 -0.06489915 -0.019232085 0.083494395 -0.1508753 -0.1034179 0.06692391 -0.08167751 0.08696341 0.19952694 0.037154123 -0.002080629 -0.10103261 -0.007839105 0.085097134 0.03789929 0.0916539 0.18792646 0.13241626 -0.06778931 0.03809623 -0.13603036 0.034638345 0.08795881 -0.009446893 0.07933385 -0.26463717 -0.13396429 0.01788719 0.13778695 -0.1387372 -0.18614605 -0.12561649 0.049915195 0.079066165 0.13647442 0.25131783
6 -0.03636088 0.08488105 0.017037412 -0.07020844 -0.036426857 0.053145505 -0.2219822 0.16475971 -0.09699509 0.06279996 0.050393067 0.08457598 -0.0155937625 0.13272205 0.15550494 -0.0031982735 -0.1001637 -0.066894494 -0.23237728 -0.05707305 -0.1223815 -0.022690712 0.021716418 0.0075715086 0.031867165 0.10950807 0.21141604 0.08837994 -0.16882446 -0.11070854 -0.053920913 -0.09748509 0.07416534 0.1643313 -0.0633287 0.12659332 -0.014394414 -0.06742568 -0.136658 -0.016055562 -0.19858187 -0.06592041 0.005447634 -0.09592856 -0.20290196 -0.008877748 0.09397253 -0.095659286 0.00014675768 -0.0438656 0.11081319 0.23240621 0.15506549 0.06453257 0.16396387 -0.08523803 -0.070780054 -0.12750962 0.1360287 0.046598095 -0.0994949 -0.28245786 -0.23978487 0.09763653 -0.050065167 0.17105006 -0.010195618 0.10903161 0.16622467 -0.088142164 0.16220212 -0.018082084 0.079850994 0.16978844 0.065015405 0.11563146 -0.0003487044 -0.021092158 -0.0008810708 -0.11694102 -0.10574765 0.023263989 0.004547291 -0.08411011 -0.1289921 -0.10321879 -0.009976945 -0.06444818 0.10784536 0.26131773 0.19554172 -0.058478378 -0.09561741 -0.02430261 0.079752386 -0.17275932 -0.11189595 0.074138515 -0.0741411 0.073407985 0.22790733 0.046752986 0.0070914933 -0.0700924 0.032288365 0.09717583 0.03220776 0.08367712 0.21434782 0.17472553 -0.067762226 0.043166667 -0.1612926 0.040542755 0.07251364 0.0036876677 0.084768675 -0.25436482 -0.17964949 0.020210553 0.1226893 -0.16440803 -0.1652727 -0.1477115 0.047226932 0.065976225 0.13850693 0.2698491
30 -0.20104231 -0.09337066 -0.06943282 -0.009981154 -0.0017768508 0.037948247 -0.068751454 0.14597377 -0.06456308 0.08431848 0.15875751 0.07898786 -0.00042204527 0.15257093 0.04318772 -0.21205337 -0.11700872 -0.06214137 -0.1713058 -0.15464477 -0.059893884 -0.013594144 0.15759863 0.059556257 0.009073147 0.16308773 0.1971552 -0.17577334 -0.11167949 0.088148125 0.0147794485 0.1089077 0.098504014 0.09972364 -0.1318859 0.082106665 0.11130842 -0.06736656 -0.18626177 -0.039289054 -0.17387538 -0.07380825 0.03492839 -0.032011144 -0.05670075 0.108178675 0.0067929463 -0.17751306 0.00074576854 0.06397854 -0.014153024 0.12023586 0.14703211 0.18956794 0.087615214 -0.061670493 0.054974493 -0.23195723 0.032395978 0.13002573 -0.04510467 -0.16995752 -0.21471295 0.18459938 0.04846769 0.07921951 -0.015900267 0.08986709 0.083618395 -0.072232045 0.21678846 0.0030017616 0.012414136 -0.017875215 0.03835304 0.02332298 -0.11975825 -0.015248235 -0.07594905 0.029259218 -0.21298394 -0.054748643 -0.070400275 -0.003835938 -0.0934256 -0.056072105 -0.0562958 -0.028511738 -0.1437914 0.16126038 0.12705094 -0.078979485 0.019818522 0.0077349925 0.11438722 -0.037558418 -0.08363739 0.02645024 -0.13991283 0.15797684 0.08639419 0.019136062 -0.052597675 -0.2220951 -0.13981843 0.014830491 0.03963289 0.08561637 0.07454643 -0.039226923 -0.053233117 0.014346764 -0.065090485 0.03403078 0.13896441 -0.047148436 0.05932825 -0.27771825 0.037017114 -0.0066367667 0.18868954 -0.045419317 -0.24883956 -0.023692945 0.06581926 0.11870338 0.102661304 0.17544691
8 -0.08814317 0.034446094 0.0014378785 -0.047201104 -0.019073308 0.043295067 -0.16373317 0.1373076 -0.0858212 0.07263564 0.07121041 0.07029004 -0.01834996 0.13088079 0.10886119 -0.0546571 -0.11188377 -0.05236578 -0.20176946 -0.068136364 -0.09770033 -0.019464051 0.071486905 0.015634889 0.015337691 0.11007766 0.20349118 0.01606391 -0.14379153 -0.051586416 -0.032876197 -0.025913294 0.07348519 0.13710646 -0.078572825 0.117209814 0.017869134 -0.070890956 -0.13432492 -0.008023629 -0.20582694 -0.07418643 0.022501834 -0.06607869 -0.16586888 0.03208725 0.04963135 -0.11577914 0.009237272 -0.013967389 0.08648751 0.2047862 0.15994316 0.098514214 0.14183722 -0.080582514 -0.032660037 -0.15184084 0.10204037 0.056685492 -0.097061634 -0.27055016 -0.26024383 0.12729546 -0.012293272 0.15382595 -0.0022074485 0.13283773 0.1494343 -0.0845886 0.19735709 -0.023312809 0.052092332 0.11292025 0.057229355 0.089785144 -0.040072206 -0.01584741 -0.033943046 -0.079188004 -0.13871692 -0.013754406 -0.030673707 -0.06845452 -0.11528301 -0.092129156 -0.017413033 -0.03588347 0.034128994 0.24628676 0.17136812 -0.079877 -0.0655245 -0.021302098 0.0878952 -0.14262947 -0.11893362 0.05021577 -0.09537483 0.106800586 0.18635528 0.03481333 -0.013514709 -0.1213264 -0.020576533 0.07250088 0.009004683 0.08091207 0.17403167 0.11712023 -0.073936805 0.035505053 -0.13189581 0.034261435 0.09131116 -0.023112413 0.091776565 -0.2738433 -0.11015447 0.0050180424 0.13435534 -0.11568023 -0.20999688 -0.098528065 0.052388262 0.08556395 0.122738145 0.2556467
9 -0.11409492 -0.0033889425 -0.028647954 -0.037887182 -0.010980948 0.03582378 -0.1325784 0.13997856 -0.077885695 0.07118424 0.101081 0.079464115 -0.009518015 0.1354906 0.08921386 -0.10330728 -0.10370483 -0.060354073 -0.18594302 -0.099978305 -0.08857828 -0.015670111 0.091154315 0.033280436 0.020178443 0.12881596 0.19150491 -0.039798528 -0.13224131 -0.007819257 -0.019369263 0.010113728 0.08418869 0.12649055 -0.090107255 0.10191729 0.04460371 -0.059984535 -0.14890178 -0.026228875 -0.17633839 -0.065054625 0.021505821 -0.05648368 -0.12512909 0.044542637 0.039134108 -0.13165851 0.002600436 0.009327106 0.04830265 0.16101785 0.14201276 0.118140884 0.114201404 -0.06693007 -0.0033703805 -0.16381069 0.07582657 0.07594225 -0.06787403 -0.21254274 -0.2151245 0.13044254 -0.001332021 0.11675933 -0.012447957 0.096536644 0.11559735 -0.07652566 0.17292507 -0.005593166 0.040978864 0.06722796 0.050064422 0.06401093 -0.05245944 -0.012797461 -0.038728453 -0.047139693 -0.14791852 -0.016426994 -0.026865419 -0.03650718 -0.10372855 -0.07263148 -0.030464165 -0.03735949 -0.02088926 0.19183317 0.1525416 -0.06405647 -0.03421541 -0.0120254 0.08613671 -0.097617894 -0.09354265 0.04318264 -0.094344 0.10931632 0.14257707 0.029272491 -0.0167571 -0.13776955 -0.055292603 0.05334465 0.03143663 0.08146688 0.13679163 0.05948507 -0.057098053 0.029313765 -0.10335567 0.035510294 0.09997392 -0.026099553 0.06987664 -0.24982892 -0.06507742 0.007349109 0.14405832 -0.09391846 -0.19973136 -0.08100592 0.054557756 0.09164705 0.11509041 0.21001212
28 -0.18052424 -0.059077565 -0.05289782 -0.019332122 -0.0042089885 0.038988944 -0.09444265 0.14352405 -0.07022984 0.081929855 0.14151582 0.08663274 -0.003750657 0.14926147 0.06211673 -0.17866932 -0.11922206 -0.06156036 -0.18424864 -0.13142002 -0.07745025 -0.012948946 0.14111128 0.052358024 0.013657432 0.15338825 0.19781688 -0.13477828 -0.11611648 0.064651035 0.00013406834 0.08365728 0.09581125 0.111388005 -0.12781718 0.092169985 0.09517928 -0.064570725 -0.1719765 -0.02777687 -0.18421555 -0.075668395 0.0304601 -0.04164192 -0.08583049 0.08792397 0.011479732 -0.16954392 0.0058325506 0.045727693 0.009948991 0.14426598 0.15203422 0.16796662 0.09329046 -0.06692913 0.034103 -0.2132196 0.04957642 0.1162517 -0.056003947 -0.20105687 -0.23513652 0.17359175 0.029738698 0.09558756 -0.009160369 0.09969624 0.10119667 -0.072276935 0.20506215 0.0031640267 0.012898302 0.009459007 0.04452279 0.038590822 -0.10033437 -0.011222237 -0.070409775 -0.0035243407 -0.19853233 -0.041797508 -0.062456664 -0.01800224 -0.09991602 -0.06019711 -0.045719244 -0.025406564 -0.112403944 0.17586812 0.1446975 -0.08016896 0.0026385144 0.0019482692 0.10716858 -0.061606757 -0.09813192 0.02585848 -0.12477293 0.14350255 0.10700512 0.020378647 -0.04444026 -0.19990121 -0.118012756 0.025300914 0.034189492 0.09023692 0.099345334 -0.0035252343 -0.05291539 0.019570779 -0.07495721 0.031758104 0.12967251 -0.046283532 0.06637156 -0.27913287 0.0013740008 -0.00299642 0.17988263 -0.056606904 -0.24394634 -0.040709402 0.063483804 0.11479757 0.11369349 0.19182907
5 -0.040487017 0.07264307 0.0082779 -0.067234054 -0.030987429 0.048327263 -0.2044872 0.15505578 -0.085726686 0.061508134 0.056273747 0.07716178 -0.012004266 0.13201597 0.14433578 -0.009848952 -0.104880884 -0.066986404 -0.22181562 -0.0631998 -0.113073625 -0.022404822 0.030974533 0.0118140085 0.03561618 0.104111314 0.20083733 0.06948503 -0.15831569 -0.10101545 -0.050714657 -0.08319178 0.07272307 0.15255842 -0.05932561 0.11995378 -0.0078013353 -0.06548026 -0.13209064 -0.020260172 -0.18993433 -0.06479689 0.0111436965 -0.087636515 -0.19080302 0.00088930497 0.082211025 -0.093723826 0.00015062472 -0.031496424 0.10559656 0.22479926 0.1496483 0.065950684 0.15157197 -0.08414963 -0.063700736 -0.12848613 0.12662502 0.051608525 -0.10004976 -0.26761422 -0.23767202 0.098203294 -0.040008098 0.15868025 -0.013791094 0.104485154 0.1609228 -0.08251724 0.16566284 -0.012659261 0.073628604 0.15135597 0.059669662 0.101080306 -0.007331586 -0.015240027 -0.004878135 -0.10797418 -0.11573957 0.016256241 0.002154601 -0.077588625 -0.12643082 -0.09323574 -0.008615499 -0.05589709 0.08792396 0.25451183 0.18723556 -0.060648896 -0.08711169 -0.019336786 0.074135415 -0.16329472 -0.10177603 0.06862893 -0.07300314 0.07438281 0.2146765 0.037740316 0.004761885 -0.07994064 0.024075935 0.08931542 0.030820567 0.08769866 0.19991909 0.16156541 -0.06378054 0.03841637 -0.15068068 0.03953245 0.06997798 -0.00056644104 0.08658392 -0.25805968 -0.16377872 0.0124111455 0.12067579 -0.15087883 -0.1680329 -0.13883397 0.05138475 0.068479314 0.13304704 0.25689656
31 -0.16788587 -0.05050203 -0.05105571 -0.018227467 -0.0031970004 0.034814853 -0.0920896 0.14219555 -0.07556138 0.0801594 0.13707893 0.076189905 -0.007880771 0.14352643 0.060796842 -0.16462225 -0.118298166 -0.05709421 -0.17610931 -0.12246617 -0.0725944 -0.018299699 0.13474222 0.047544952 0.010673901 0.14857686 0.19599314 -0.121636756 -0.12071875 0.054379437 0.0008948422 0.07316095 0.09337091 0.11202598 -0.12184291 0.09334524 0.09000134 -0.064011775 -0.16985261 -0.027109768 -0.17849365 -0.07194257 0.03144797 -0.041897595 -0.08420018 0.08631772 0.014938182 -0.1654973 0.011048573 0.036865555 0.020379957 0.1419021 0.15511629 0.15805644 0.10057546 -0.06724815 0.028266696 -0.20993195 0.05462985 0.10840577 -0.06403335 -0.20547368 -0.23055866 0.17135158 0.02721983 0.10001388 -0.014631861 0.09883714 0.105319634 -0.08136478 0.21580073 -0.0024271994 0.02031388 0.01917095 0.04783709 0.0409108 -0.096712865 -0.01850896 -0.06563228 -0.002022109 -0.1954194 -0.045668848 -0.060561974 -0.024132391 -0.10237405 -0.07020804 -0.050873153 -0.029176237 -0.10037458 0.18816185 0.14049669 -0.08185184 0.00065259717 0.0014581978 0.109003186 -0.07113282 -0.10331216 0.029334718 -0.13008717 0.1474762 0.12087604 0.02222014 -0.040087856 -0.19869828 -0.11277747 0.0336158 0.033506315 0.0840517 0.101108536 0.0011181191 -0.056342937 0.02587494 -0.0855817 0.03427173 0.13142788 -0.039411683 0.07092654 -0.283178 -0.009654596 0.003140249 0.17724235 -0.061886646 -0.24324057 -0.046634667 0.063728526 0.11125473 0.11536553 0.19901249
11 -0.06857897 0.050452285 -0.002464697 -0.06621747 -0.0225951 0.04884232 -0.19332379 0.16542688 -0.092657246 0.07041429 0.078673355 0.085891895 -0.007450886 0.13863485 0.1311657 -0.050070327 -0.11141311 -0.06900539 -0.22134878 -0.0790993 -0.11319226 -0.02509652 0.05688528 0.013672112 0.030580804 0.11840156 0.20730606 0.03131167 -0.1547937 -0.06698295 -0.035811145 -0.05790801 0.08334165 0.14928733 -0.07723512 0.11304296 0.01681378 -0.072556876 -0.1459273 -0.02247506 -0.19411495 -0.06397434 0.010594159 -0.07929677 -0.17584412 0.01557322 0.07467196 -0.11352888 0.0051527843 -0.022332355 0.088631794 0.21272905 0.14990705 0.08471096 0.14517651 -0.082318366 -0.04359387 -0.1468312 0.110368975 0.06370376 -0.09062658 -0.26304775 -0.24181715 0.117043264 -0.027885204 0.15605034 -0.012965498 0.10711999 0.15449744 -0.0842173 0.17381397 -0.011391115 0.06823368 0.13218303 0.060650602 0.09194977 -0.02403482 -0.015835926 -0.01972138 -0.08765804 -0.13701193 0.00036003947 -0.0103752 -0.0666186 -0.119237185 -0.09397431 -0.01818059 -0.057327673 0.049767114 0.24779277 0.18295477 -0.06549677 -0.06526483 -0.022087289 0.0835094 -0.15046532 -0.105637774 0.062492665 -0.08611004 0.089437105 0.20123623 0.03653086 -0.0014481231 -0.106918566 -0.0029816185 0.083039194 0.03140961 0.093267255 0.19139262 0.13225162 -0.067046404 0.03503105 -0.13885356 0.03961841 0.087545134 -0.0047462266 0.08005587 -0.2703847 -0.13765627 0.014288454 0.14013393 -0.14274865 -0.1877536 -0.123516634 0.05440448 0.076520145 0.13343759 0.25633195
20 -0.12609221 -0.0096313935 -0.03004637 -0.032339364 -0.01508937 0.041382026 -0.12754472 0.14154144 -0.07660128 0.075257294 0.10724786 0.07728249 -0.01107685 0.13729288 0.08586781 -0.114434935 -0.10823093 -0.05489767 -0.18832245 -0.10503975 -0.085175164 -0.013895522 0.10297221 0.03548285 0.016547037 0.13103059 0.1933698 -0.05706605 -0.12984562 0.0024928981 -0.010949822 0.020602746 0.0802456 0.12237368 -0.099342234 0.09684043 0.058669116 -0.06975619 -0.15290482 -0.024862997 -0.17896144 -0.06963273 0.020719685 -0.051028695 -0.11755951 0.058080778 0.037574694 -0.13302419 0.00283637 0.0130350385 0.040953644 0.16916667 0.14707525 0.12959082 0.11017479 -0.06554445 -0.0020657387 -0.17707618 0.07225276 0.08618933 -0.07398526 -0.2184957 -0.23045596 0.1407766 0.008105236 0.11912078 -0.013233248 0.10454151 0.12106597 -0.07728156 0.19407062 -0.00964674 0.03109797 0.055866484 0.04864786 0.06301411 -0.06721139 -0.0186117 -0.047265593 -0.03487016 -0.16229339 -0.028597437 -0.03795258 -0.039255306 -0.09990889 -0.07106857 -0.03645643 -0.03655018 -0.034468487 0.20686668 0.15268455 -0.07047162 -0.026388375 -0.0095470315 0.096491925 -0.10004932 -0.09514747 0.042999234 -0.10230529 0.11804035 0.14116678 0.030888394 -0.02723862 -0.15261689 -0.06335362 0.04600866 0.028022235 0.08614536 0.1333961 0.05655192 -0.059430674 0.028467383 -0.10106633 0.035749212 0.108845495 -0.029508958 0.06915043 -0.26743144 -0.054575 0.00032532276 0.15020387 -0.09159169 -0.21152996 -0.07205662 0.05587934 0.09553755 0.11652354 0.21092702
29 -0.16600944 -0.056726184 -0.05046839 -0.018366499 -0.0042788885 0.035965756 -0.08830845 0.13932624 -0.070388526 0.07471865 0.13801746 0.0764232 -0.009554126 0.13725019 0.05705978 -0.17028415 -0.11471301 -0.05367556 -0.17163795 -0.119806685 -0.07011611 -0.016286323 0.13206385 0.052205715 0.003912674 0.14493631 0.18471454 -0.12256827 -0.10900079 0.055862945 0.004113459 0.07434087 0.086628005 0.11053236 -0.121997274 0.08767471 0.09329873 -0.064893425 -0.16013607 -0.030604966 -0.17217739 -0.06574184 0.034034327 -0.03679014 -0.07947753 0.088955246 0.012284312 -0.1598751 0.0042607705 0.039264046 0.014940723 0.13729341 0.14891157 0.15930413 0.09260549 -0.060729165 0.03200343 -0.20153268 0.050213806 0.10924241 -0.059989996 -0.18907794 -0.22605179 0.16557729 0.033133406 0.10002948 -0.013515421 0.09804135 0.1024323 -0.073306754 0.2027709 -0.003891238 0.010822117 0.008388601 0.04282302 0.035786264 -0.096526325 -0.022044398 -0.06667031 0.0033249608 -0.18938558 -0.04134369 -0.059508964 -0.015206109 -0.096574545 -0.06493787 -0.046457972 -0.02439783 -0.10197178 0.17510289 0.142629 -0.07422 0.0036498609 -0.0049036955 0.09959354 -0.062292665 -0.091681376 0.031008566 -0.123350024 0.14573719 0.10410813 0.021682529 -0.038407166 -0.18953216 -0.11001301 0.027785096 0.031682078 0.08484372 0.094212554 -0.0052335816 -0.052151658 0.021654518 -0.07636018 0.033950828 0.13175537 -0.04448233 0.065577045 -0.27483246 -0.0010559342 0.005011244 0.1740503 -0.061469845 -0.24056551 -0.044677623 0.054784596 0.11405948 0.11088886 0.19019473
26 -0.16760626 -0.042279612 -0.057599418 -0.027933707 -0.0017826409 0.038534533 -0.10243608 0.14960364 -0.07390501 0.079605244 0.13764718 0.09200521 -0.009842826 0.14369245 0.071853675 -0.17194769 -0.121205255 -0.06563377 -0.18497899 -0.13029069 -0.08556348 -0.015283636 0.12919553 0.052620687 0.015961818 0.15290429 0.19904785 -0.12654479 -0.11696034 0.051843766 -0.00020173407 0.06827105 0.09365494 0.112708315 -0.12253524 0.09243261 0.089307144 -0.06093523 -0.17101304 -0.03210328 -0.17261527 -0.06762993 0.02517515 -0.048861418 -0.08509747 0.080943674 0.017604452 -0.15718324 0.0049829055 0.03811521 0.016870406 0.13852681 0.1507148 0.15736845 0.089840904 -0.06875607 0.030687781 -0.20590991 0.055870015 0.10768943 -0.058698084 -0.20152833 -0.23220211 0.16763715 0.0240088 0.091443144 -0.019253347 0.08936615 0.105851576 -0.064229086 0.19430472 0.008623848 0.013269975 0.019570842 0.051449966 0.037798613 -0.08952157 -0.009023704 -0.06555536 -0.009198273 -0.18283044 -0.036854755 -0.050834782 -0.014264584 -0.09484287 -0.058044683 -0.038648475 -0.032739684 -0.095344305 0.17113674 0.1476821 -0.0732027 0.0009136143 0.0008967168 0.10265865 -0.069113865 -0.092393555 0.035249334 -0.11596676 0.13430932 0.11401887 0.027948285 -0.032813005 -0.18388203 -0.09665031 0.032357056 0.038470775 0.08757235 0.100516826 0.00022771582 -0.05275654 0.025709145 -0.08319079 0.034828044 0.12268697 -0.044024978 0.059063666 -0.26513487 -0.008978827 0.010944096 0.16575648 -0.06758144 -0.23367816 -0.05040341 0.06002578 0.110947184 0.11789803 0.18576145
25 -0.1630565 -0.043404523 -0.052771326 -0.028276807 -0.0023141382 0.03975528 -0.0982513 0.14780128 -0.074923925 0.076416045 0.13768594 0.08674948 -0.009644026 0.14744449 0.06508739 -0.1645446 -0.120345145 -0.057052255 -0.17827319 -0.13093771 -0.080536045 -0.016919848 0.13405238 0.045766477 0.00903735 0.15181175 0.19791356 -0.12246433 -0.12041224 0.053014934 -0.006757965 0.06952782 0.09407631 0.10883777 -0.12431419 0.089638986 0.09062093 -0.06052414 -0.16937079 -0.025138922 -0.18263182 -0.072461314 0.03091954 -0.042024184 -0.08871649 0.07910588 0.017776089 -0.16027263 0.0053639705 0.03296327 0.0147611825 0.14054382 0.14703168 0.16200611 0.09198771 -0.06748762 0.029867738 -0.201333 0.059058145 0.101903215 -0.064482816 -0.20533045 -0.2317657 0.15957241 0.027940342 0.09826824 -0.01643858 0.095348395 0.10575015 -0.069749154 0.1952849 0.0020972942 0.012148018 0.015958266 0.050472066 0.039176106 -0.09196213 -0.008239949 -0.06573207 -0.0044066175 -0.18348555 -0.04107158 -0.054825768 -0.02041532 -0.09530426 -0.062377743 -0.04100451 -0.02881539 -0.09665653 0.18047597 0.14558206 -0.08110603 0.0012336947 0.0013519851 0.09717022 -0.06943549 -0.09033415 0.030824644 -0.11778451 0.14095391 0.113748826 0.021416465 -0.037162535 -0.18467459 -0.10317039 0.029397054 0.033546545 0.09123416 0.10371725 0.0067836726 -0.055890974 0.024424603 -0.08044418 0.034501687 0.11834414 -0.046474636 0.060384717 -0.271065 -0.0019632406 0.007234501 0.16996694 -0.057959273 -0.23556933 -0.051811676 0.06232609 0.1107212 0.1164744 0.19195561
23 -0.19763163 -0.09281252 -0.065648995 -0.015492485 0.0013024934 0.031080846 -0.06551876 0.13984668 -0.063486926 0.08433596 0.16033179 0.07660935 -0.0065461723 0.14737213 0.04643675 -0.2066714 -0.11585282 -0.057412546 -0.16770071 -0.14556348 -0.05983614 -0.015040738 0.15674977 0.0629336 0.008523788 0.15927082 0.18813996 -0.17031041 -0.104706824 0.08678746 0.011653533 0.110758975 0.094162844 0.10485766 -0.13432702 0.0871119 0.115709946 -0.06485273 -0.18357944 -0.03470908 -0.17000008 -0.07045754 0.032379437 -0.03216571 -0.06548414 0.10601829 -0.0007907308 -0.17822874 0.008633673 0.058087006 -0.009150446 0.1204169 0.14984234 0.18594982 0.088138245 -0.059037723 0.05397885 -0.22815312 0.039300196 0.12533762 -0.046308905 -0.17376383 -0.21873084 0.18313475 0.04610217 0.08571544 -0.017939784 0.08870302 0.08579212 -0.07993984 0.22120258 7.0230315e-05 0.012194616 -0.018571934 0.0379685 0.023954948 -0.114535615 -0.025065443 -0.076287985 0.02366941 -0.21451479 -0.057417545 -0.067401424 -0.0067215324 -0.09564859 -0.062658116 -0.057380356 -0.02170018 -0.14747418 0.16399974 0.13142443 -0.07539417 0.022731062 0.006602111 0.11513721 -0.0389919 -0.08958898 0.031178538 -0.14128555 0.1595008 0.08468792 0.018741256 -0.05350631 -0.22047333 -0.14112577 0.014301388 0.042867836 0.085587755 0.07806226 -0.03273354 -0.053080168 0.015181373 -0.06525933 0.037730522 0.14708835 -0.048759785 0.06195374 -0.2851969 0.028338766 -0.004610146 0.18924126 -0.043427713 -0.25749293 -0.030429918 0.058721416 0.11927151 0.10289222 0.17719157
15 -0.18233357 -0.073878616 -0.06088736 -0.019750899 -0.004405166 0.033484533 -0.087192364 0.14835092 -0.067530125 0.08001972 0.1548351 0.082949415 -0.0040730545 0.14872576 0.05627973 -0.19098984 -0.11795639 -0.063717164 -0.17256308 -0.13961844 -0.06889111 -0.012819428 0.14547668 0.05750198 0.010322879 0.15627947 0.19385165 -0.14368674 -0.11136437 0.066529155 0.0009931385 0.08596871 0.09516921 0.11515769 -0.12792891 0.093698144 0.09698989 -0.06401993 -0.17577124 -0.03233667 -0.17866789 -0.074135594 0.03008172 -0.034710508 -0.07941488 0.092068456 0.015951265 -0.17275302 0.0032152773 0.048155144 0.006647613 0.13829221 0.15479344 0.1756118 0.09285086 -0.06391757 0.042781338 -0.22042088 0.045542207 0.11805407 -0.054069553 -0.19187643 -0.2298106 0.17745763 0.035413317 0.09091461 -0.017164733 0.09664085 0.092759304 -0.081532374 0.21443136 -0.0033784125 0.013230084 -0.00064657 0.045506608 0.031783275 -0.105379686 -0.015657658 -0.06996044 0.0021043306 -0.20542717 -0.049396943 -0.061085247 -0.0119843185 -0.09723575 -0.06368329 -0.047535893 -0.029167525 -0.1226498 0.17555016 0.1454072 -0.08152522 0.012470889 0.00023603294 0.10707153 -0.060977004 -0.09303932 0.03109903 -0.13502246 0.15244523 0.102748536 0.024025546 -0.046013027 -0.2100208 -0.12875012 0.030208832 0.039634116 0.08710997 0.09848625 -0.015661487 -0.05410303 0.024619801 -0.07288079 0.038542658 0.13852623 -0.046182264 0.06662563 -0.28312746 0.0058310977 0.00032688474 0.185147 -0.057954576 -0.2523236 -0.042845678 0.05860162 0.11759805 0.10782739 0.1961009
21 -0.18609698 -0.07141809 -0.057053544 -0.020018581 -0.0017217072 0.0337462 -0.09299987 0.15216365 -0.075505815 0.08191057 0.14946477 0.08769793 -0.003030408 0.15329854 0.057096496 -0.1917219 -0.1251661 -0.06320808 -0.18132694 -0.14306799 -0.0761937 -0.018040031 0.14515164 0.05375011 0.009423153 0.15776807 0.2042784 -0.14550379 -0.1229091 0.06993841 0.0018551698 0.08812168 0.095395796 0.1107028 -0.1306191 0.09574289 0.102756076 -0.06927677 -0.18298484 -0.030668207 -0.1807598 -0.07295891 0.035477225 -0.040328443 -0.08185915 0.094922595 0.011367954 -0.17543498 0.0054936055 0.0507489 0.008320633 0.14087941 0.15476343 0.17668028 0.0989198 -0.05990788 0.04034829 -0.22493562 0.050759945 0.1236289 -0.053316977 -0.19983831 -0.23460698 0.17861834 0.036386218 0.09584628 -0.014412338 0.10045036 0.10444724 -0.07619188 0.2238496 -0.0014404954 0.01806519 0.006376714 0.048075486 0.03577526 -0.11163716 -0.02030906 -0.07120199 0.007763583 -0.20415284 -0.04987557 -0.06382551 -0.017932361 -0.097888775 -0.06967903 -0.05378904 -0.028830623 -0.11781542 0.18601544 0.14410847 -0.08102954 0.010943119 -0.0021270919 0.1160489 -0.06485377 -0.0975465 0.035537355 -0.13790466 0.15303268 0.1114987 0.022089759 -0.047697525 -0.20723723 -0.13012898 0.022881472 0.037149467 0.0877541 0.09697944 -0.013510214 -0.057596225 0.026310805 -0.08463258 0.04096208 0.14197946 -0.047417972 0.06675615 -0.28942126 0.00897385 0.0019808428 0.18912677 -0.06331153 -0.25947335 -0.0408301 0.061797082 0.11736837 0.11590551 0.20379181
17 -0.055353876 0.060073603 0.00014239151 -0.06466558 -0.03186075 0.04540697 -0.20069945 0.16683497 -0.08798156 0.06971346 0.07347419 0.08390952 -0.009026008 0.13925526 0.14318842 -0.03379759 -0.1038974 -0.06948515 -0.22112189 -0.0688666 -0.10804793 -0.02373948 0.03662919 0.015395862 0.02907689 0.111779965 0.2056555 0.050353535 -0.15822473 -0.08734072 -0.046559665 -0.068065986 0.07531775 0.1543636 -0.0697426 0.116169095 0.0031146775 -0.07036597 -0.13987173 -0.016459165 -0.18337485 -0.065824375 0.006540814 -0.08529075 -0.18089896 0.006232395 0.08387179 -0.09911842 0.001840082 -0.026724597 0.09494136 0.21725143 0.15192424 0.0767558 0.14692028 -0.07961655 -0.054055955 -0.13388705 0.12286786 0.051935848 -0.09180821 -0.2646819 -0.23079439 0.11012315 -0.035316765 0.15246996 -0.011658519 0.102852054 0.15468924 -0.07892828 0.16667038 -0.007903087 0.07072247 0.14369877 0.06427857 0.10228185 -0.013171487 -0.019127516 -0.013393852 -0.099609904 -0.12452822 0.013417004 8.1665145e-05 -0.069530256 -0.124047495 -0.09473168 -0.019560153 -0.060676187 0.0721346 0.24481416 0.18782835 -0.06284196 -0.079645656 -0.01860498 0.07732898 -0.1520084 -0.10127819 0.07079853 -0.08120684 0.08211842 0.20935631 0.04064121 0.0042587877 -0.09425378 0.011117439 0.08704496 0.03869409 0.09063772 0.19907106 0.14475015 -0.0643559 0.037477594 -0.14482278 0.036972787 0.08442955 0.001807109 0.079167105 -0.26185697 -0.15163314 0.01879157 0.12739666 -0.15097992 -0.17531773 -0.12699734 0.05151867 0.07429817 0.13448077 0.25823414
22 -0.09043523 0.018185612 -0.008883039 -0.043644797 -0.014057726 0.040567882 -0.14581661 0.13703285 -0.074603125 0.06959169 0.08418671 0.07156435 -0.009013774 0.1289478 0.10319056 -0.073050745 -0.1072324 -0.056567248 -0.1953175 -0.08037581 -0.0909785 -0.018886322 0.06930775 0.021322725 0.019134281 0.11393831 0.19176021 -0.001549074 -0.13755083 -0.038392283 -0.02485366 -0.014463029 0.072506376 0.13052988 -0.077799685 0.10231273 0.026879972 -0.06676484 -0.13913217 -0.015050998 -0.17754564 -0.063940845 0.019481674 -0.06386541 -0.14340663 0.033314355 0.047237087 -0.11973802 0.009731936 -0.003375377 0.06379937 0.18385948 0.14695244 0.10127766 0.12474095 -0.07103789 -0.02111615 -0.15057991 0.09230407 0.06775398 -0.07950269 -0.23731726 -0.23179285 0.12621953 -0.0061952136 0.1336396 -0.010764672 0.10529208 0.1335199 -0.07991477 0.17790985 -0.009629484 0.048376497 0.09418572 0.04905647 0.07406392 -0.04205949 -0.017224174 -0.031052064 -0.06570083 -0.13320678 -0.015396893 -0.028717149 -0.049543116 -0.10581275 -0.08410165 -0.02601288 -0.03650543 0.011603272 0.22000119 0.16161042 -0.069499604 -0.049067866 -0.011767687 0.08516992 -0.12183971 -0.10045431 0.049430225 -0.090637855 0.10468699 0.16755743 0.029689154 -0.010084545 -0.12388176 -0.03525186 0.06616906 0.021807438 0.08048632 0.15565978 0.09357351 -0.05826265 0.03649901 -0.119932726 0.03689179 0.09379948 -0.018518338 0.07324491 -0.25441018 -0.093255825 0.0032596386 0.13834026 -0.106753714 -0.19346127 -0.093920544 0.04770724 0.082132116 0.113705195 0.22454403
27 -0.20414795 -0.098061405 -0.064311415 -0.010442532 -0.0010780202 0.033572588 -0.062005803 0.13880466 -0.059999485 0.088469334 0.16092855 0.07428741 -0.003310819 0.15332104 0.04104217 -0.20452003 -0.12201159 -0.061891355 -0.16159412 -0.14503092 -0.056268744 -0.013448677 0.15920569 0.057748444 0.0044149254 0.16302115 0.18787682 -0.16688965 -0.106019646 0.0905968 0.017966893 0.11062041 0.09904811 0.10062979 -0.1332305 0.081444 0.114407375 -0.07193051 -0.18636481 -0.03183861 -0.16888833 -0.06964545 0.037557114 -0.024186954 -0.065670244 0.10880617 -0.00024336598 -0.18273494 0.004151945 0.06109031 -0.010703091 0.12795408 0.14479938 0.1812012 0.08804603 -0.05692184 0.056158666 -0.23347442 0.034525923 0.12700112 -0.042649843 -0.17056507 -0.22105137 0.18329337 0.05203493 0.0879499 -0.017831866 0.08845335 0.08613468 -0.08064372 0.22385883 0.00052733126 0.009582355 -0.024090106 0.043043222 0.021915516 -0.121512316 -0.024512744 -0.07542243 0.027126784 -0.212633 -0.054575473 -0.07116774 -0.0085512 -0.09132437 -0.059484743 -0.05458302 -0.023781946 -0.15025169 0.16603214 0.12760057 -0.07958371 0.020334456 0.0011241102 0.11021473 -0.03869754 -0.09347615 0.025317041 -0.14283086 0.16678537 0.08874573 0.017942775 -0.049173836 -0.22418481 -0.14469297 0.013139916 0.0393615 0.08527917 0.07694519 -0.03416776 -0.053900972 0.012342121 -0.061875504 0.030884707 0.14409265 -0.05358379 0.06310199 -0.28144953 0.029683579 -0.008497457 0.18936804 -0.046498965 -0.25903714 -0.021769598 0.060845822 0.12267568 0.107813016 0.18132748
19 -0.20173314 -0.09685518 -0.07433329 -0.016077083 0.000957072 0.033049963 -0.0688525 0.1439361 -0.061557565 0.08415435 0.16434161 0.07931442 -0.00034040303 0.15284105 0.04041163 -0.20465893 -0.11552852 -0.061576232 -0.15842769 -0.1530777 -0.059227247 -0.0130418595 0.15170956 0.06046832 0.0126919 0.16024853 0.19171046 -0.17349854 -0.105584 0.09177142 0.010339283 0.11010187 0.10302554 0.10111064 -0.13336863 0.081992224 0.117057 -0.06728233 -0.18696888 -0.04176445 -0.16445185 -0.06949433 0.03649184 -0.025634367 -0.06254281 0.1051484 0.0061918204 -0.17873721 -0.00074935955 0.059848957 -0.015224772 0.12604102 0.14742629 0.1800694 0.087915465 -0.057555545 0.052398995 -0.23246297 0.034711014 0.13219202 -0.03985994 -0.16614905 -0.21334277 0.18575811 0.045757905 0.08010622 -0.021577407 0.07909536 0.0815519 -0.0763463 0.21728052 -0.0008944166 0.00933424 -0.025345076 0.04293313 0.021115987 -0.11927333 -0.023532502 -0.076949984 0.026815878 -0.21371314 -0.048517503 -0.06368288 0.00028298364 -0.09662966 -0.05331451 -0.05808115 -0.024324322 -0.14878303 0.15964544 0.12921755 -0.07832577 0.024156727 0.0006174557 0.113520935 -0.04064096 -0.08682856 0.027922865 -0.1383394 0.15828817 0.08578064 0.019589173 -0.052411973 -0.22096829 -0.14114492 0.010438884 0.04604002 0.07963903 0.075237334 -0.041539356 -0.046390027 0.01357258 -0.06338683 0.033099804 0.1431493 -0.044845976 0.056954537 -0.27764243 0.034749676 -0.002646313 0.19070418 -0.045797277 -0.2468075 -0.026696421 0.063187905 0.11886765 0.10508312 0.1692875
10 -0.16282286 -0.039376825 -0.037972055 -0.03039309 -0.011699692 0.038248602 -0.11315169 0.15408494 -0.075266466 0.079676904 0.13012807 0.08621316 -0.012163717 0.14590003 0.07923501 -0.1509994 -0.12438737 -0.05780488 -0.19372366 -0.12181662 -0.08081687 -0.021128083 0.12432433 0.03978054 0.015085876 0.14587471 0.20433863 -0.09744402 -0.12757255 0.029786283 -0.0031385764 0.05396871 0.094772235 0.12774184 -0.11651516 0.098728895 0.07687895 -0.06997383 -0.16517211 -0.023339566 -0.19566157 -0.071867324 0.024813939 -0.04922273 -0.112009846 0.07657254 0.02253415 -0.16343485 0.008355343 0.03211494 0.034095116 0.16108543 0.1553708 0.15449795 0.115202524 -0.07401009 0.015198276 -0.19910648 0.06764336 0.104778096 -0.068421006 -0.22497408 -0.24567807 0.16677676 0.019593596 0.11889631 -0.014142567 0.11426535 0.11902376 -0.083131485 0.2172414 -0.003674323 0.030315913 0.03641532 0.048218343 0.055547558 -0.0902676 -0.015283031 -0.061157003 -0.019133171 -0.18974878 -0.037134275 -0.0508672 -0.030459052 -0.108132 -0.0710877 -0.03823135 -0.029424464 -0.07562433 0.20687002 0.15821795 -0.084430546 -0.018344833 -0.008987138 0.1099472 -0.08454212 -0.10346512 0.038916297 -0.118541844 0.14510307 0.12961677 0.03030994 -0.031931177 -0.18604295 -0.09871404 0.04086289 0.031832285 0.08577546 0.12544632 0.032358956 -0.06561639 0.027971266 -0.09976857 0.033635084 0.12742583 -0.04338385 0.07465222 -0.28658804 -0.032574337 0.0018609967 0.17329139 -0.077478774 -0.24473013 -0.059490878 0.058943093 0.10900479 0.11638613 0.2212943
16 -0.21361202 -0.098030046 -0.07597717 -0.013634712 0.0020919514 0.036647815 -0.06328161 0.14467329 -0.06801278 0.083605446 0.17162149 0.07942538 -0.005774021 0.15561324 0.041395783 -0.21602932 -0.12565973 -0.0580387 -0.17015767 -0.15616469 -0.060864482 -0.014543807 0.17011106 0.06410928 0.0070257387 0.17054625 0.19661857 -0.18231739 -0.10601255 0.09734822 0.019365357 0.11958608 0.10621995 0.108604684 -0.14233242 0.082048304 0.11947268 -0.0723365 -0.1877548 -0.041029774 -0.175225 -0.0746788 0.041430578 -0.02681364 -0.058986016 0.11843565 0.00020860125 -0.19295296 0.0054252474 0.0632227 -0.009956899 0.1286812 0.15261076 0.19481254 0.08429725 -0.054705765 0.062406227 -0.24299747 0.036026534 0.13282429 -0.047087327 -0.17718785 -0.2243997 0.1896849 0.050344195 0.08158574 -0.01312936 0.09575463 0.08543455 -0.08092695 0.22806896 -0.0015359606 0.005652542 -0.02663953 0.04454415 0.02242067 -0.12619825 -0.02537923 -0.08388799 0.02703507 -0.22659233 -0.058331676 -0.07738708 -0.0057433816 -0.09662526 -0.060759544 -0.06122893 -0.02273933 -0.15462714 0.16681485 0.13086514 -0.07886874 0.031371433 0.0049068984 0.11492507 -0.03853582 -0.09128883 0.025892803 -0.1461002 0.17244332 0.08677788 0.01619693 -0.057156187 -0.23094234 -0.15369833 0.014044335 0.041852 0.0890399 0.07680231 -0.048142806 -0.056209758 0.01957787 -0.06559005 0.03696222 0.15316294 -0.052426685 0.06364784 -0.29697722 0.042425934 -0.0035332462 0.19885966 -0.045880314 -0.267451 -0.025198065 0.062104274 0.12593248 0.10920121 0.1781232
18 -0.10862212 0.008051972 -0.0177732 -0.044169385 -0.017036876 0.04028661 -0.14171885 0.1457495 -0.08125135 0.070867285 0.09405911 0.074383825 -0.011961662 0.13358028 0.09264243 -0.09095131 -0.10418764 -0.05753316 -0.18995719 -0.094160214 -0.09034121 -0.021376505 0.08529137 0.025442882 0.018400822 0.12767564 0.19216698 -0.030212238 -0.12853605 -0.01317307 -0.01801982 0.00086095673 0.079191014 0.12867802 -0.08719369 0.10509255 0.044707015 -0.064122714 -0.14304289 -0.02447155 -0.18339154 -0.06926514 0.01952379 -0.059309192 -0.1334518 0.043751746 0.045626935 -0.12503229 0.0041794246 0.002031854 0.0544418 0.17758399 0.14654091 0.115441345 0.12411167 -0.072371736 -0.009967493 -0.1665724 0.08361457 0.07811517 -0.078959815 -0.22714537 -0.23099004 0.13635845 -0.004370452 0.12927416 -0.008763607 0.10422919 0.12362705 -0.081470005 0.18870044 -0.013459105 0.045211602 0.07904898 0.04663112 0.06551512 -0.056058124 -0.01601798 -0.0348869 -0.05253237 -0.15078099 -0.019658213 -0.028709255 -0.04675166 -0.10587765 -0.08115605 -0.032776233 -0.04117312 -0.009952379 0.21172577 0.15374072 -0.07237154 -0.035997946 -0.013514562 0.09077931 -0.10933468 -0.098484114 0.048849117 -0.098802894 0.11335251 0.15470271 0.029350452 -0.017320069 -0.13781962 -0.050235026 0.058398277 0.024287188 0.08479454 0.14531544 0.073660456 -0.065377034 0.033867702 -0.11119392 0.03473677 0.09992738 -0.023209546 0.07776399 -0.2657911 -0.075772494 0.0061946283 0.14943537 -0.102432966 -0.20736076 -0.086327985 0.051779587 0.085443884 0.1194242 0.22458467
13 -0.103173345 0.011640723 -0.016042357 -0.04524935 -0.016644755 0.038897887 -0.14972377 0.1500003 -0.08156243 0.06793227 0.09194069 0.0773216 -0.0114888465 0.13831802 0.10563465 -0.08529472 -0.11137028 -0.062869035 -0.20268248 -0.08317341 -0.097047836 -0.016296651 0.08215679 0.028095987 0.016740581 0.12713194 0.19587235 -0.02038298 -0.14209059 -0.030169075 -0.024627527 -0.0101389615 0.08268258 0.1390799 -0.09006361 0.11215971 0.03908066 -0.07321292 -0.14441267 -0.018206727 -0.19082497 -0.06852055 0.018082565 -0.06563899 -0.14419603 0.043494627 0.051473122 -0.13077025 0.009758579 -0.0014720162 0.066640824 0.18761669 0.1511181 0.111337416 0.13453324 -0.07829182 -0.015644886 -0.16579635 0.094951764 0.078311436 -0.08439278 -0.24799609 -0.24496022 0.13329841 -0.0030317795 0.13823768 -0.0128623145 0.11365821 0.13959907 -0.08021443 0.19013245 -0.012040714 0.046129663 0.08886645 0.05601763 0.07971018 -0.054201797 -0.020497287 -0.03649767 -0.055532333 -0.1506635 -0.016033724 -0.03198609 -0.0536019 -0.11588416 -0.08351584 -0.027858218 -0.04078865 -0.00015664409 0.23101181 0.17097755 -0.070123404 -0.0451509 -0.01484667 0.0910784 -0.12034453 -0.11010294 0.046515696 -0.10040024 0.11368642 0.17432255 0.03401739 -0.018672574 -0.14261957 -0.040662114 0.0625776 0.02562038 0.08875557 0.1582877 0.08814433 -0.06775091 0.030227846 -0.121959604 0.03372231 0.1027442 -0.018211884 0.08064442 -0.2754317 -0.09092336 0.004522272 0.14988898 -0.1088746 -0.21501036 -0.09092389 0.05564219 0.08702745 0.12554793 0.24029687
12 -0.11662615 0.0009415234 -0.027089933 -0.045712646 -0.017957214 0.04048918 -0.14255609 0.15220779 -0.08008968 0.07162709 0.105050586 0.08220477 -0.0074254116 0.14177407 0.10177266 -0.104417846 -0.11353316 -0.059475947 -0.20096788 -0.098573625 -0.09422426 -0.018148096 0.087870814 0.02844536 0.01660192 0.13407968 0.20210427 -0.037466973 -0.13604529 -0.007821976 -0.019985463 0.003194516 0.084554166 0.13207915 -0.09519814 0.108502656 0.050458588 -0.06731004 -0.15181813 -0.020903701 -0.19042139 -0.069233716 0.023371931 -0.064764604 -0.13461044 0.05172759 0.04577515 -0.13562171 0.008781616 0.0081393765 0.057216775 0.17829153 0.15196979 0.11892469 0.12772326 -0.07245202 -0.009893809 -0.17522697 0.08441188 0.085559376 -0.08077812 -0.23310512 -0.24103813 0.13961071 -0.003802938 0.13173628 -0.012378726 0.10284884 0.12616402 -0.076523475 0.19529368 -0.0075793667 0.039930705 0.07352514 0.053325426 0.06899837 -0.06085481 -0.0130034825 -0.03847486 -0.047467317 -0.1619624 -0.01893861 -0.030024983 -0.045526985 -0.107828334 -0.08116993 -0.027492873 -0.043094467 -0.015088211 0.21895531 0.16102983 -0.06889662 -0.035308436 -0.0071094353 0.0931446 -0.11387363 -0.10517889 0.045993425 -0.10084681 0.11591812 0.15950385 0.03181921 -0.019362338 -0.14914082 -0.057070043 0.060481384 0.027560605 0.08799375 0.14768445 0.068626374 -0.059340633 0.03180635 -0.11351325 0.035573218 0.10519927 -0.023538603 0.07734696 -0.26905566 -0.0765422 0.007976629 0.15570386 -0.10576082 -0.21089332 -0.08506954 0.056185838 0.08956682 0.12416482 0.22936043
