34 128
34 -0.046537135 -0.018808821 0.011639749 0.068074286 -0.020937301 -0.30390638 0.03441807 -0.15612242 -0.09070028 -0.18386413 0.13678817 0.00912665 -0.005894399 0.003829074 0.056819394 0.23242798 -0.2593028 -0.09223216 -0.045299575 0.047848325 -0.036575705 -0.009601405 0.02837486 0.29117236 -0.12425636 -0.060414165 0.1088942 -0.281632 0.14642501 -0.015165502 0.011202865 -0.016514678 -0.03937235 0.0056984723 0.115477055 -0.051043555 0.18504818 -0.046861336 -0.0009775714 0.043271393 -0.16261153 -0.02062952 -0.23737441 -0.0768839 -0.07182784 -0.03189131 0.10395797 -0.06389347 -0.071913056 0.10708378 0.13959427 -0.16132894 -0.0740368 -0.019775838 0.0028881517 0.10941884 -0.1427758 -0.052455608 0.25833878 0.00532923 0.01990941 -0.061472278 -0.05285142 -0.14541116 -0.017462997 -0.08287032 -0.08554435 -0.02502613 0.13535148 0.1490796 0.101267725 0.05001034 -0.09957865 -0.032634806 0.002384743 -0.07048558 0.009765099 -0.053080704 0.06067499 -0.026600927 0.19288507 -0.043217894 0.0067110737 0.08320428 0.09481502 -0.07247507 0.169114 -0.02527344 -0.079183236 -0.096142195 -0.0056135054 0.058212038 -0.050507132 -0.0508555 -0.21978313 0.08941716 0.022693442 0.12488009 0.008873416 0.1530189 0.093457825 0.055210266 -0.054685473 -0.04121213 0.07379261 -0.08567633 -0.0824366 0.08979347 0.025831988 0.033948272 -0.0123866405 -0.01710667 -0.029528657 -0.011903087 0.012583502 -0.030440822 0.0824241 0.16327727 -0.03504874 -0.23454897 -0.045341574 0.033745307 -0.055876274 0.006953877 -0.03582107 0.11459832 0.14404948 -0.08379311
1 -0.078295134 0.013580027 -0.00865091 0.099714726 -0.016765473 -0.21798855 0.059139945 -0.10110984 -0.0018319499 -0.14904346 0.06394071 0.020290416 -0.047217526 0.03786633 0.1702726 0.15763175 -0.09192181 -0.072120175 -0.04634833 0.012011386 0.0065019634 0.02208506 0.015241396 0.271821 -0.16236281 -0.029549342 0.12133808 -0.19630527 0.081777446 -0.026309017 -0.041844245 0.048620902 -0.026459655 0.027837478 0.10664563 -0.016298307 0.13031821 -0.033763394 0.008215305 0.0792945 -0.15084307 -0.013326191 -0.2899547 -0.04861736 -0.009967501 -0.018442681 0.083079584 -0.14840785 -0.051882643 0.15004277 0.16905017 -0.083066344 -0.037442625 -0.057061054 -0.056213897 0.18495421 -0.13041742 -0.09715108 0.22877331 0.009031357 0.057083495 0.0034650692 -0.10901771 -0.15877403 -0.024078026 -0.13152279 -0.12919006 -0.013435209 0.14406662 0.16208653 0.07930796 0.004385583 -0.14923193 0.07244723 0.0153200375 0.021040145 -0.005238989 -0.097821675 0.14208232 -0.01037753 0.1888541 -0.0108006075 -0.01793439 0.12645933 0.011982728 -0.082041435 0.18309824 -0.04668892 -0.06460824 -0.13732472 0.00013694273 0.07426289 -0.04134091 -0.13198397 -0.23929569 0.037473977 0.091690406 0.15624356 0.048186634 0.074971095 0.1933944 0.093037255 -0.058834277 -0.04743172 0.046182908 -0.020153627 -0.04861649 0.08585943 0.025520122 0.10283526 0.013311076 0.029699145 -0.045016374 -0.023786744 0.075037494 -0.09149074 0.05947719 0.19484343 -0.0034826598 -0.19814304 -0.03639221 0.0131838955 -0.10934035 -0.061929222 -0.080010355 0.15870175 0.20289032 -0.13835683
33 -0.046613324 -0.019677987 0.0069491663 0.06885087 -0.018448897 -0.3182949 0.033440005 -0.16930172 -0.10677398 -0.19392025 0.14411868 0.0151307555 -0.0009151329 0.0026760972 0.035924405 0.24275072 -0.2873366 -0.096938826 -0.04844711 0.056251854 -0.043122865 -0.015423521 0.032685865 0.29439524 -0.11882229 -0.067372374 0.10903403 -0.28862008 0.16320464 -0.013086251 0.020375233 -0.034913488 -0.03546441 -0.0012696399 0.12031787 -0.05431668 0.19995578 -0.058318228 -0.0019405092 0.03989755 -0.16814706 -0.015792098 -0.22579785 -0.08517174 -0.08546214 -0.030627904 0.11313611 -0.04610339 -0.0678342 0.103072606 0.1352016 -0.16802657 -0.08020684 -0.013406882 0.00918376 0.09802959 -0.1424927 -0.041009773 0.26075798 0.007488525 0.010614416 -0.07004379 -0.03795355 -0.14072737 -0.018305555 -0.07829648 -0.07455076 -0.022477122 0.14218795 0.1487615 0.10203822 0.06097423 -0.09428003 -0.050129432 -0.0009354007 -0.08527668 0.0041617597 -0.04122138 0.042339552 -0.03421185 0.20103931 -0.053942915 0.01106973 0.07387627 0.11322767 -0.07010283 0.17045955 -0.020384146 -0.08419251 -0.0999693 -0.0048932726 0.057156198 -0.052159894 -0.041156158 -0.21651086 0.09602328 0.015416238 0.12039472 0.004239509 0.16858818 0.07883509 0.051580038 -0.057121143 -0.050072767 0.08426104 -0.10228028 -0.093861096 0.092431 0.02889241 0.025584696 -0.014565701 -0.022901874 -0.020810785 -0.005242688 -0.003432326 -0.019002713 0.08449923 0.16298172 -0.037194483 -0.24637559 -0.04591314 0.040804744 -0.04652338 0.014955721 -0.036312327 0.1099207 0.13851644 -0.07850535
3 -0.058055896 -0.016069591 0.010477966 0.07568431 -0.021320086 -0.29842824 0.04421058 -0.15189181 -0.07573602 -0.18894479 0.12463905 0.014478291 -0.01473066 0.010217297 0.07687894 0.23388208 -0.23549621 -0.08804119 -0.046388548 0.048391636 -0.030413385 -0.004026126 0.02248198 0.29747307 -0.12940003 -0.052083272 0.118103005 -0.27274856 0.1401695 -0.015090207 0.003941567 -0.014068067 -0.03800116 0.016212456 0.11566606 -0.040401474 0.1817151 -0.05617061 0.0076399352 0.05465664 -0.16370179 -0.020594204 -0.25251132 -0.075733595 -0.06346275 -0.02368488 0.10825966 -0.07769742 -0.06399437 0.120134585 0.1537256 -0.15015915 -0.07072409 -0.024112718 -0.009146452 0.12441522 -0.14161736 -0.056283016 0.26275355 0.0039153933 0.019537007 -0.04831619 -0.061655294 -0.15515569 -0.017504023 -0.09929328 -0.09503228 -0.029487906 0.1436312 0.15943265 0.09969313 0.04389055 -0.10985422 -0.012015554 0.00804166 -0.057374846 0.007764216 -0.062333006 0.07064148 -0.027996156 0.19953822 -0.04290226 0.0037291583 0.095890716 0.08131221 -0.06953124 0.1879611 -0.034408055 -0.07668353 -0.11038261 -0.0017525922 0.065247566 -0.04940222 -0.06482119 -0.2295038 0.08319068 0.04200937 0.13779068 0.019288957 0.14188756 0.11324231 0.06909857 -0.061390273 -0.05530354 0.07133876 -0.07792645 -0.072995014 0.090140834 0.029863587 0.05047942 -0.008345742 -0.0054517263 -0.03250729 -0.008951058 0.018690737 -0.047846477 0.07889968 0.17847666 -0.023849217 -0.2401429 -0.049137425 0.032693565 -0.060646217 -0.0136345215 -0.056381397 0.12737398 0.15968023 -0.09932892
2 -0.06469241 0.0015177861 0.0033358124 0.09463515 -0.016487531 -0.24245006 0.056415305 -0.114342526 -0.02712622 -0.15780279 0.08934221 0.013526006 -0.038999185 0.02955736 0.1421073 0.18438727 -0.13772848 -0.07101823 -0.04112933 0.025563465 -0.010277132 0.019183706 0.016324842 0.27892336 -0.15353535 -0.031911146 0.12469857 -0.22169517 0.10309233 -0.01904007 -0.02803546 0.031721257 -0.038062774 0.024953896 0.11125196 -0.023936966 0.14548732 -0.043675557 0.008257565 0.06691458 -0.15392314 -0.019879747 -0.27412626 -0.061001882 -0.026815057 -0.021319726 0.09051677 -0.12521158 -0.059674878 0.13918161 0.15862803 -0.09990918 -0.048851863 -0.044834424 -0.034679644 0.16196716 -0.13230148 -0.08302862 0.24072123 0.011431054 0.041629966 -0.023750145 -0.089283936 -0.15254767 -0.020772845 -0.11114841 -0.118177466 -0.019050447 0.14076668 0.15838362 0.078880705 0.02456197 -0.13778485 0.046617314 0.014119414 -0.0032111304 0.005122511 -0.08290078 0.114459105 -0.00985853 0.18074721 -0.024597611 -0.016548017 0.107889116 0.02832971 -0.075839974 0.17970645 -0.037525658 -0.066698216 -0.121511005 8.5481615e-06 0.07341735 -0.041073788 -0.10435014 -0.23309256 0.051747866 0.07912877 0.14504053 0.04161249 0.100563034 0.15511857 0.08217279 -0.05769203 -0.044321578 0.054626018 -0.03339394 -0.058447216 0.08676839 0.020996753 0.08408466 0.0014569164 0.019715108 -0.043115493 -0.018080842 0.05445604 -0.07183436 0.061373297 0.18365477 -0.010031129 -0.21069632 -0.04084603 0.014650286 -0.095097125 -0.03937362 -0.06822157 0.1429422 0.1818895 -0.124577984
32 -0.062701926 0.00036701484 -0.0047431807 0.08065277 -0.02182961 -0.277198 0.043570396 -0.13868621 -0.0631597 -0.17227112 0.11190691 0.013932118 -0.018914463 0.010521905 0.085032545 0.21032341 -0.2093682 -0.07785353 -0.046839606 0.039079208 -0.015923556 0.0033561348 0.02899021 0.28026724 -0.13048151 -0.050585307 0.10503949 -0.2567488 0.13435884 -0.014685065 -0.0061077927 -0.008173528 -0.021911087 0.008629109 0.11379199 -0.033110775 0.1736441 -0.039061356 0.0035731818 0.061136797 -0.15199798 -0.013394539 -0.2515529 -0.06702176 -0.05738463 -0.02842988 0.09428072 -0.087855324 -0.066620134 0.1112073 0.14461157 -0.14145783 -0.061549522 -0.03201462 -0.018884907 0.13338195 -0.13885187 -0.071329266 0.24633306 0.00987384 0.026394868 -0.03947098 -0.061653167 -0.15474075 -0.020080443 -0.09767346 -0.104568474 -0.013826003 0.1426139 0.15713973 0.08897215 0.034377113 -0.11318681 -0.0061079483 0.011330727 -0.052813668 0.012498063 -0.074912675 0.08522811 -0.020971358 0.19965969 -0.03080915 0.008032118 0.095529884 0.080837816 -0.082994856 0.17639625 -0.038946472 -0.065276325 -0.10861672 -0.004880147 0.07095583 -0.050816804 -0.08378513 -0.23012125 0.074034154 0.04594603 0.1342153 0.019409934 0.13771722 0.1256407 0.07121372 -0.06491304 -0.039581995 0.07437084 -0.07195689 -0.07231932 0.08800747 0.020821037 0.051001348 -0.001775064 -0.004525437 -0.033569835 -0.021254716 0.031676244 -0.04889749 0.07157832 0.17343841 -0.021876758 -0.23161408 -0.03907206 0.034870647 -0.06765153 -0.018938754 -0.04230777 0.12650141 0.16037473 -0.099974394
4 -0.07259731 0.010089405 -0.007921267 0.09957225 -0.019431917 -0.22218837 0.057042263 -0.09855736 -0.0021753036 -0.14704145 0.06722698 0.01561105 -0.044315953 0.03478802 0.1638981 0.1655669 -0.09601993 -0.069632076 -0.043539137 0.013358588 0.0033587348 0.02261797 0.014041381 0.27005374 -0.15766363 -0.024715805 0.12232906 -0.20625652 0.08597932 -0.021328973 -0.04158307 0.045556687 -0.029480621 0.027863538 0.111621276 -0.019273506 0.12937532 -0.031477213 0.0023110297 0.08301484 -0.14734286 -0.015708473 -0.28818578 -0.053644385 -0.010053623 -0.02146371 0.08538724 -0.14732914 -0.057336345 0.14443894 0.16929911 -0.08887904 -0.043291654 -0.054627877 -0.055156138 0.18346521 -0.12923902 -0.095705226 0.22360516 0.0095542595 0.054854162 0.0006050465 -0.10410779 -0.15880005 -0.025422776 -0.12241263 -0.12694678 -0.012320146 0.13826011 0.15757138 0.07613515 0.0042813774 -0.14198826 0.06526555 0.014112424 0.015146824 0.0038665964 -0.09806543 0.13613443 -0.0063569476 0.18636145 -0.012670549 -0.018184692 0.12579335 0.013037952 -0.08003539 0.18309645 -0.04559992 -0.06527137 -0.1283114 -0.0037070746 0.07877278 -0.037547562 -0.12538399 -0.24127686 0.043100104 0.09416073 0.15538119 0.04763151 0.08402152 0.17991613 0.09178448 -0.062087 -0.04516245 0.048012387 -0.021073928 -0.04367929 0.087409854 0.024784705 0.09853861 0.011217971 0.027086675 -0.04793034 -0.026216812 0.071083054 -0.09032768 0.055553533 0.19165759 -0.0023465063 -0.2024176 -0.03585169 0.017380051 -0.1077101 -0.057769407 -0.07610494 0.15625897 0.19586511 -0.13738605
14 -0.066845424 0.0047816886 -0.0034783948 0.08958812 -0.015842833 -0.25098863 0.056618005 -0.11902309 -0.030166045 -0.16622047 0.08472468 0.019930707 -0.03501781 0.027363714 0.1371593 0.18732125 -0.14508335 -0.079337195 -0.043903105 0.025299445 -0.009126958 0.018076014 0.024914036 0.28455928 -0.15271638 -0.035292845 0.116455376 -0.23013951 0.10625245 -0.021220556 -0.022837741 0.022635153 -0.03179136 0.021392623 0.11838881 -0.023935221 0.15419365 -0.035112463 0.006082929 0.074589595 -0.15326102 -0.0109989215 -0.28302416 -0.05495116 -0.032433808 -0.02046629 0.09605882 -0.12831941 -0.06477093 0.13524057 0.1691945 -0.115170136 -0.05026041 -0.043658763 -0.042802148 0.16121005 -0.13492101 -0.084597506 0.24417497 0.014108745 0.043428615 -0.01657466 -0.088239424 -0.16126785 -0.018689796 -0.11794264 -0.12382959 -0.010094286 0.14637181 0.1643756 0.087673984 0.01553289 -0.14052457 0.046152867 0.010052377 -0.01523436 0.0044725435 -0.08920449 0.11880922 -0.013390804 0.19847423 -0.020515481 -0.009615194 0.115708925 0.03650076 -0.08005703 0.18694797 -0.041311085 -0.06855932 -0.12645413 -0.0043246606 0.075164095 -0.041921515 -0.11144007 -0.2451755 0.058817923 0.07703596 0.14925317 0.03576345 0.10958804 0.1672276 0.08670142 -0.06529546 -0.05026484 0.057290845 -0.04425262 -0.062410947 0.08960836 0.028447358 0.08513465 0.009293416 0.014615353 -0.040993188 -0.026314782 0.053661995 -0.07699335 0.06872058 0.19280782 -0.015666768 -0.21624057 -0.033442598 0.020889444 -0.09982849 -0.043697435 -0.0636918 0.1519164 0.18939888 -0.12210929
24 -0.05568519 -0.00869713 -0.0019693237 0.0735052 -0.016063366 -0.2909364 0.04132798 -0.15019011 -0.07889285 -0.17751238 0.12193806 0.010648583 -0.004904876 0.005750584 0.06609427 0.22566618 -0.2410234 -0.083764285 -0.050314583 0.044116788 -0.024628859 -0.011658961 0.03790775 0.28288317 -0.12018885 -0.054220784 0.10073975 -0.27602035 0.15048511 -0.012359976 0.008165168 -0.021766491 -0.02517399 -0.0008739412 0.109399095 -0.048939202 0.18368743 -0.03913179 -0.0053340993 0.05381493 -0.15566272 -0.013437471 -0.24377309 -0.06879833 -0.06625862 -0.031225823 0.1000203 -0.06765344 -0.07448004 0.10203623 0.14494899 -0.15678066 -0.06929125 -0.024400985 -0.013886138 0.116412185 -0.14713787 -0.06721409 0.25253597 0.010652351 0.01757968 -0.04651472 -0.05697876 -0.1507267 -0.021653788 -0.08837151 -0.0897966 -0.0116527015 0.14227468 0.14940509 0.0932379 0.038354266 -0.09437629 -0.026050953 0.011915628 -0.07404461 0.011292162 -0.06266504 0.06502528 -0.023185415 0.20078765 -0.035372507 0.012446743 0.08618464 0.09920083 -0.08369125 0.16853723 -0.03223563 -0.06611027 -0.095495604 -0.006872535 0.0658061 -0.043886732 -0.06957899 -0.22581623 0.08955949 0.028693624 0.13001603 0.012342173 0.1496148 0.10669692 0.066575535 -0.065125674 -0.042503804 0.08275469 -0.08464274 -0.07740472 0.08437411 0.020416623 0.036057148 -0.004497798 -0.015663618 -0.037047245 -0.017780924 0.019561697 -0.0354575 0.07935177 0.17009945 -0.03583986 -0.23547792 -0.039809503 0.039070506 -0.06008286 -0.0013455392 -0.034621734 0.115940265 0.15314613 -0.09007975
6 -0.09572876 0.045447186 -0.031073894 0.12813929 -0.0133293355 -0.19409868 0.06705598 -0.06438215 0.038016554 -0.11883923 0.021414626 0.016295934 -0.07613347 0.05796236 0.25342166 0.102145195 -0.0010069872 -0.07741072 -0.056985255 -0.033431493 0.028997358 0.03273711 0.017925289 0.26527697 -0.19145373 -0.017651798 0.12030045 -0.17149301 0.05356504 -0.032296766 -0.068063766 0.096803375 -0.020086708 0.024418976 0.112488054 -0.016665328 0.1035982 0.0050399867 -0.005501676 0.10467174 -0.15072899 0.0063088657 -0.3346926 -0.03821499 0.021432325 -0.015881088 0.06197153 -0.20526646 -0.05317835 0.16469051 0.16797633 -0.054760892 -0.010382481 -0.07728685 -0.08914859 0.23558825 -0.13813263 -0.1435517 0.19749413 0.025140356 0.09166839 0.039418656 -0.14582874 -0.16180545 -0.045898225 -0.1501929 -0.16418257 0.021130443 0.13381582 0.16891077 0.06549429 -0.01815877 -0.18649432 0.13076574 0.009715433 0.07134354 -0.01998504 -0.12893952 0.19574827 -0.0016770767 0.175404 0.0305341 -0.028756984 0.12900747 -0.038624357 -0.10977035 0.1650865 -0.056915402 -0.051451787 -0.14753014 -0.0039987005 0.070823036 -0.038181454 -0.18474776 -0.25447124 0.007127456 0.13482414 0.16567989 0.04214478 0.030207118 0.25875732 0.10373188 -0.052214257 -0.021774605 0.03434268 0.032120142 -0.02378375 0.07807117 0.026602244 0.1236099 0.032109894 0.049264126 -0.070514366 -0.048804965 0.124726884 -0.1065595 0.0411342 0.20067675 -0.007603622 -0.16954304 -0.010376619 -0.003120004 -0.15260278 -0.08694237 -0.07613435 0.18225038 0.23693672 -0.15808879
30 -0.053091865 -0.008520055 -0.0004062033 0.07214911 -0.017299533 -0.28900608 0.03751266 -0.13931306 -0.0711463 -0.17740802 0.11916208 0.015891273 -0.013960133 0.010320237 0.073702596 0.21239129 -0.22837678 -0.08118949 -0.04490002 0.03929081 -0.025114248 -0.0010573108 0.025919447 0.27752802 -0.1273455 -0.05547231 0.104946904 -0.2560022 0.14146447 -0.0103509 0.0066814716 -0.013539369 -0.032835536 0.006642994 0.116652854 -0.04132648 0.17788155 -0.043538168 0.00448025 0.049793996 -0.14983408 -0.018142449 -0.23003523 -0.06911296 -0.060625125 -0.028785551 0.101898015 -0.07404813 -0.069774464 0.10853566 0.14145201 -0.1438148 -0.06635435 -0.019794175 -0.008272277 0.11306251 -0.13691518 -0.06271489 0.23882003 0.007157326 0.020828467 -0.047301218 -0.055569712 -0.13682385 -0.015227147 -0.08653188 -0.09155774 -0.018309409 0.13251407 0.15046032 0.08947478 0.03795421 -0.103216074 -0.012208959 0.0103754485 -0.056088883 0.007217647 -0.056076158 0.061677102 -0.022091443 0.18728858 -0.039664917 0.0037844104 0.086455956 0.08424995 -0.078277886 0.16565816 -0.03209833 -0.07227022 -0.103298225 -0.008425143 0.06332068 -0.047547363 -0.062612705 -0.21152243 0.07607838 0.02737841 0.12294836 0.01694351 0.1411666 0.110902585 0.062421415 -0.056977328 -0.040480115 0.0740375 -0.07536668 -0.07297881 0.08608699 0.02224672 0.043049667 0.0010587197 -0.013879221 -0.028840395 -0.010132719 0.0137229785 -0.040340345 0.07495341 0.16190921 -0.030611664 -0.2263723 -0.035437193 0.032508202 -0.06456691 -0.0066392096 -0.03729694 0.116988145 0.14838141 -0.0907836
9 -0.06083829 -0.0049343677 -0.0015486595 0.079227686 -0.017637 -0.27531472 0.04249498 -0.13451323 -0.055092122 -0.17088504 0.112439096 0.01839547 -0.02466547 0.013485535 0.09856116 0.20449516 -0.19694033 -0.08312678 -0.045185767 0.036049902 -0.021109283 0.006438937 0.020228691 0.27988756 -0.13898663 -0.051200815 0.11102974 -0.24704559 0.12387786 -0.0149763785 -0.0066046324 0.004951145 -0.035917122 0.010031296 0.11420136 -0.037776902 0.17213258 -0.048455875 0.0041179582 0.058543935 -0.15834305 -0.016119393 -0.2559665 -0.068472005 -0.053764332 -0.023075817 0.09461181 -0.0947369 -0.05957285 0.12554455 0.14925843 -0.129424 -0.062323987 -0.034574725 -0.018015947 0.13262127 -0.13697773 -0.06570002 0.24231276 0.0062480876 0.02698159 -0.038319837 -0.06683535 -0.14333981 -0.015547007 -0.10158284 -0.10255012 -0.013629694 0.13521297 0.15641375 0.08919434 0.034940396 -0.118197724 0.008755578 0.008536949 -0.037930433 -0.00022903793 -0.06862433 0.08774162 -0.023511812 0.19257729 -0.029705187 -0.003306942 0.09144578 0.066697866 -0.071969055 0.17512575 -0.029431054 -0.074503854 -0.11213692 3.0888885e-05 0.064664245 -0.043821502 -0.08177971 -0.22473842 0.07138029 0.047301672 0.13320915 0.0263877 0.12647197 0.12663662 0.06567321 -0.058244005 -0.047705904 0.06768484 -0.0629999 -0.06604796 0.08390605 0.022286043 0.057884693 0.0034935856 -0.0011579155 -0.029630713 -0.01363083 0.027797094 -0.052818883 0.073112674 0.17362384 -0.022708338 -0.22049041 -0.03650254 0.027845314 -0.07046865 -0.021061685 -0.051018316 0.12683667 0.16700351 -0.103795454
28 -0.05784615 -0.0055038165 -0.0029771258 0.07951744 -0.017517716 -0.27938685 0.039856855 -0.13555604 -0.06298063 -0.17260939 0.11287951 0.012990199 -0.015151549 0.008961518 0.08275823 0.21379511 -0.21323587 -0.079958394 -0.045964632 0.04048311 -0.018103214 1.2319808e-05 0.031164084 0.28130698 -0.12871486 -0.046689946 0.10824923 -0.25953564 0.13405107 -0.012113056 -0.003266512 -0.00050256704 -0.025148185 0.012124825 0.11362892 -0.037346754 0.17456895 -0.0403814 0.0027613214 0.060208503 -0.15179828 -0.015845263 -0.2534305 -0.07177607 -0.05335007 -0.025639975 0.10263546 -0.08398798 -0.06586295 0.119085245 0.14641292 -0.1423687 -0.06478833 -0.028682485 -0.020392343 0.13214152 -0.14389013 -0.072257906 0.24835652 0.012397891 0.024851017 -0.03865905 -0.06293813 -0.14888515 -0.017220449 -0.09953616 -0.09687988 -0.014321072 0.14133467 0.15946656 0.0901736 0.035732705 -0.10897888 -0.004869819 0.009425348 -0.050785232 0.008059732 -0.06742632 0.08280696 -0.021388492 0.19899026 -0.035537075 0.004531891 0.09724396 0.07915016 -0.08129486 0.17647529 -0.03559375 -0.068305306 -0.11244269 -0.007935157 0.066116795 -0.042828996 -0.07948904 -0.23179527 0.07545781 0.041060373 0.136662 0.021087393 0.13574727 0.12280429 0.069713645 -0.060087334 -0.04179722 0.072852105 -0.07168321 -0.07607092 0.085462786 0.023519611 0.04828336 0.0009871159 -0.0031855225 -0.03784047 -0.016625106 0.028271167 -0.04939194 0.07454603 0.17595907 -0.0282275 -0.23326534 -0.039802775 0.033142917 -0.07344147 -0.018821511 -0.048843842 0.13135318 0.16537601 -0.09944023
7 -0.08851281 0.043142885 -0.031629097 0.122868456 -0.01725331 -0.20309137 0.06856054 -0.06920826 0.022767713 -0.12751253 0.033893626 0.012773252 -0.06445741 0.050820645 0.23323719 0.11385204 -0.03266752 -0.07839383 -0.058577016 -0.029038781 0.022507548 0.0263152 0.022888646 0.26365897 -0.18457265 -0.021253195 0.115155876 -0.18791007 0.06909123 -0.027376758 -0.059742384 0.08124773 -0.017584218 0.018254034 0.11329536 -0.019691512 0.116910584 0.0039548213 -0.006070912 0.10387318 -0.15296835 0.007825144 -0.33168474 -0.036307923 0.0050924094 -0.014378554 0.06635799 -0.1892976 -0.059083637 0.15437786 0.16602466 -0.06758415 -0.016503394 -0.06764939 -0.081732675 0.22315416 -0.14302585 -0.14017507 0.2087794 0.027891463 0.084603645 0.035331424 -0.13620165 -0.16566312 -0.044780247 -0.14000359 -0.15652627 0.02078009 0.13250035 0.17250706 0.06781581 -0.007016384 -0.17851101 0.11325609 0.0111004915 0.049498007 -0.020093037 -0.12060883 0.18172012 -0.0007783127 0.18312077 0.026834054 -0.019270284 0.12445874 -0.016073067 -0.112482026 0.16569506 -0.048308898 -0.050315414 -0.1383214 -0.001138506 0.065676235 -0.03624835 -0.17418046 -0.25489074 0.01876488 0.12044283 0.15762706 0.03628888 0.048538577 0.2461754 0.09687576 -0.052849546 -0.023856306 0.041645646 0.0154079255 -0.033930074 0.08456014 0.02748049 0.117327325 0.029398529 0.03932556 -0.0692068 -0.043431684 0.11367237 -0.09365368 0.047397994 0.19942549 -0.012219283 -0.17888445 -0.013875126 0.0022639765 -0.14468083 -0.07284015 -0.06756662 0.1718931 0.23102951 -0.1469903
8 -0.06935087 0.0029049239 -0.00377569 0.087478325 -0.02033298 -0.25329003 0.05502467 -0.121843286 -0.029604651 -0.15962292 0.08637337 0.011639923 -0.03503092 0.023517301 0.13323216 0.18545042 -0.15368196 -0.07477484 -0.043862455 0.026194835 -0.010684894 0.019037543 0.023229519 0.27658275 -0.15000673 -0.036903657 0.119635895 -0.23165649 0.1122808 -0.015181252 -0.021611834 0.025887592 -0.029744197 0.025138324 0.11735676 -0.024778545 0.15086354 -0.037394043 0.0009598038 0.07228088 -0.15508515 -0.012179743 -0.27866915 -0.05907768 -0.03136034 -0.022848902 0.087920345 -0.12124862 -0.063020505 0.12948188 0.16377838 -0.11375574 -0.054445926 -0.040508095 -0.041750107 0.15739241 -0.13611329 -0.08161435 0.24528268 0.012925617 0.04557564 -0.024161348 -0.089498855 -0.16130647 -0.02343132 -0.11054349 -0.11537335 -0.013571381 0.14263637 0.1609987 0.0856372 0.022332791 -0.13657826 0.041513465 0.012834039 -0.020035338 0.006510649 -0.08964576 0.11644622 -0.015722334 0.1933759 -0.022637479 -0.012244283 0.112655744 0.041140493 -0.08025986 0.18279254 -0.045349382 -0.069291495 -0.1273178 -0.00080774835 0.07489655 -0.04898251 -0.101137534 -0.2379955 0.056538247 0.07744676 0.1472377 0.037622016 0.110081255 0.15739101 0.08608886 -0.06419442 -0.04671272 0.06277166 -0.046418335 -0.06172552 0.0937554 0.02374208 0.08261744 0.0033625243 0.013643695 -0.044166017 -0.024685899 0.056655414 -0.07186857 0.0653616 0.19252671 -0.017288473 -0.22057225 -0.04102288 0.021510253 -0.08908324 -0.043393478 -0.06676781 0.14738663 0.18519162 -0.118145
31 -0.05809589 -0.0058710864 0.005343752 0.08092849 -0.019726122 -0.26930326 0.048660196 -0.13077986 -0.05260671 -0.16640957 0.10311794 0.017747633 -0.024589384 0.018281417 0.098932244 0.19396298 -0.18653287 -0.07609777 -0.04589116 0.035324838 -0.015992897 0.0034840617 0.021321453 0.27730232 -0.13608626 -0.0433053 0.10802515 -0.24054168 0.12294965 -0.013386304 -0.009340357 0.002850701 -0.03502616 0.015354515 0.116811946 -0.033421002 0.15754229 -0.042957276 0.0010230534 0.06037321 -0.14774404 -0.018688684 -0.2508513 -0.06262631 -0.044866625 -0.023708614 0.09206384 -0.095088735 -0.06391266 0.12043757 0.14769912 -0.123383775 -0.061919335 -0.02689359 -0.02424291 0.13187242 -0.12877972 -0.06513763 0.23859307 0.006342939 0.03513436 -0.039520774 -0.06692246 -0.14539872 -0.015280116 -0.09992754 -0.101022765 -0.014099899 0.13726716 0.15243271 0.085171916 0.03279616 -0.11387571 0.008567853 0.01110703 -0.034142435 0.0032434256 -0.07001633 0.08172848 -0.020999242 0.18401916 -0.035254795 -0.0030596014 0.09296822 0.061858233 -0.07781643 0.16923021 -0.02861266 -0.067609005 -0.10993883 -0.0027550207 0.06612752 -0.04262634 -0.08142776 -0.21752122 0.06602608 0.05408959 0.13388121 0.024050782 0.12333418 0.12973656 0.07280524 -0.054980747 -0.047898125 0.064288415 -0.05467238 -0.06943861 0.08337927 0.025852475 0.05583567 0.002590337 -0.0011811529 -0.030867176 -0.016712615 0.032095056 -0.051441204 0.067037724 0.17109446 -0.020916894 -0.21484771 -0.039149255 0.026948234 -0.07250806 -0.020315321 -0.04860198 0.12545353 0.16231108 -0.10499839
29 -0.066299476 7.583425e-05 0.0023081189 0.08756868 -0.022895835 -0.27918184 0.048599645 -0.13754228 -0.058502164 -0.17477599 0.11164552 0.012199655 -0.025516465 0.02054202 0.10426569 0.20981653 -0.19179322 -0.08682677 -0.046745144 0.03389026 -0.015625266 0.009822429 0.028308839 0.29042876 -0.13873087 -0.044677433 0.113776706 -0.25086108 0.13290827 -0.015655065 -0.014540959 0.005842719 -0.030308878 0.0111470055 0.11913393 -0.039934915 0.17471212 -0.044272404 -0.0008744014 0.063768946 -0.16020668 -0.017471893 -0.26866922 -0.06965233 -0.0478876 -0.024213286 0.0946357 -0.100495696 -0.06471066 0.12732461 0.15103808 -0.1380254 -0.06080688 -0.039467704 -0.029213002 0.1456056 -0.14311679 -0.07686061 0.24966118 0.0137878135 0.032337807 -0.034660585 -0.077666074 -0.1580933 -0.018501982 -0.1049009 -0.105067596 -0.016088331 0.1501996 0.16164242 0.09480254 0.034021262 -0.12801442 0.009999548 0.013070748 -0.04249537 0.0044439924 -0.07295385 0.098375544 -0.02063778 0.20262885 -0.027064689 0.0023396506 0.10084967 0.06880923 -0.084947 0.17979416 -0.039259266 -0.071634784 -0.123676665 -0.004985506 0.067699045 -0.048664175 -0.0895654 -0.23476756 0.0726552 0.054594208 0.14158037 0.028684571 0.13025981 0.14236674 0.073046915 -0.06064002 -0.05017819 0.07171928 -0.064894564 -0.06872355 0.08880206 0.026720192 0.06306676 0.00058959046 0.004110061 -0.039279383 -0.020949828 0.041498523 -0.055901207 0.07452148 0.18168052 -0.021819875 -0.23577455 -0.039212536 0.02881533 -0.07641023 -0.029551545 -0.057497963 0.1410485 0.17933294 -0.11332064
26 -0.049972463 -0.0076024253 -0.0026626377 0.06841141 -0.014116669 -0.29169545 0.04018093 -0.14355397 -0.07989719 -0.18168868 0.122865155 0.016449235 -0.011678046 -6.3629894e-05 0.057448402 0.21890175 -0.24345422 -0.08269224 -0.049192455 0.050852515 -0.027717547 -0.0058105304 0.0351439 0.28630942 -0.11557204 -0.05837348 0.10197403 -0.268403 0.14992239 -0.0044478825 0.0062408233 -0.020364895 -0.02218247 0.0023368779 0.11074903 -0.042408925 0.18188863 -0.04459666 -0.003580533 0.0552507 -0.14619766 -0.015637629 -0.24056771 -0.06855213 -0.064024866 -0.027313443 0.10152752 -0.07016584 -0.069310375 0.10095383 0.14299995 -0.15329064 -0.06087903 -0.020325836 -0.012666083 0.109965295 -0.14539196 -0.065108694 0.25216758 0.0110802855 0.022612264 -0.050988942 -0.053333968 -0.15168299 -0.01160526 -0.09048412 -0.095663235 -0.017885856 0.14244547 0.15494654 0.09569256 0.03585963 -0.092361994 -0.022670083 0.010388133 -0.07347468 0.014828551 -0.06331995 0.05875128 -0.025871994 0.20336084 -0.037428748 0.006996162 0.091674596 0.095946155 -0.08398099 0.17015167 -0.028508458 -0.07229301 -0.09560262 -0.0027433187 0.06928946 -0.045824546 -0.06798364 -0.22085017 0.08233586 0.029213447 0.12724951 0.009345393 0.14850111 0.11210837 0.06250675 -0.06440889 -0.043871157 0.07762191 -0.078215085 -0.0786816 0.0903753 0.023143519 0.03677889 -0.0010345217 -0.015732577 -0.03731377 -0.019998617 0.012852334 -0.036665753 0.079561956 0.17130631 -0.033812527 -0.23583075 -0.037872165 0.033785526 -0.06057893 -0.010459694 -0.034156177 0.120779105 0.14569485 -0.08198577
25 -0.06062048 -0.006315946 -0.0007324538 0.074612066 -0.019960975 -0.30453444 0.041312687 -0.15288095 -0.079288356 -0.18719684 0.12309145 0.015402665 -0.01215633 0.0038774265 0.07125595 0.23113245 -0.24374908 -0.08490335 -0.051878013 0.048203778 -0.023509461 -0.0087596355 0.036807973 0.29290512 -0.12160078 -0.05309675 0.10346544 -0.2788208 0.15169603 -0.00832646 0.0042970697 -0.019267641 -0.024984837 0.0064646946 0.11254138 -0.040617026 0.18852997 -0.041814294 -0.002091464 0.05680911 -0.15049048 -0.017871995 -0.24838163 -0.06811192 -0.071262 -0.02853672 0.10574286 -0.07289954 -0.074563555 0.10986362 0.14611611 -0.1547762 -0.06441001 -0.026850667 -0.014035666 0.12358345 -0.14697647 -0.06696144 0.25336477 0.010562698 0.022816502 -0.048722293 -0.060990658 -0.15554532 -0.018884432 -0.096393295 -0.100224406 -0.016554445 0.14713524 0.15488823 0.093072064 0.040456284 -0.10158749 -0.023225134 0.013611374 -0.07228754 0.014809408 -0.06736778 0.06568579 -0.025361847 0.20559622 -0.04057478 0.00990501 0.0910227 0.09908298 -0.08515038 0.17630504 -0.032116752 -0.06881359 -0.09781051 -0.0069635003 0.068713695 -0.05002893 -0.072782144 -0.22703753 0.09001807 0.034816306 0.13540743 0.007710634 0.15361889 0.11627642 0.0674629 -0.06733519 -0.04307415 0.07686924 -0.0823841 -0.076438926 0.08658493 0.024198122 0.03630127 -0.0013313466 -0.014970355 -0.035384852 -0.017374918 0.015909022 -0.034106754 0.080768056 0.17483549 -0.029537596 -0.23683561 -0.0387849 0.040588923 -0.06035402 -0.010660749 -0.033783942 0.124470375 0.1521146 -0.09218682
11 -0.08845541 0.034158353 -0.02153202 0.11458092 -0.011420795 -0.2036138 0.06416979 -0.080401264 0.018957663 -0.13834661 0.04371383 0.016794845 -0.06310199 0.04985469 0.21523413 0.12965053 -0.045835786 -0.07616555 -0.05621201 -0.013379018 0.019088116 0.03292009 0.015331029 0.27378696 -0.17720161 -0.019309476 0.12187579 -0.18784179 0.06521583 -0.02433708 -0.05197277 0.07375944 -0.018664423 0.029901186 0.112582766 -0.013945544 0.120402224 -0.0077860183 -0.00020898087 0.09982315 -0.1478395 -0.0013039561 -0.32328472 -0.038727313 0.0046241637 -0.018248565 0.07189179 -0.17768487 -0.05675975 0.15979166 0.17737797 -0.078015245 -0.021905852 -0.063399404 -0.08192747 0.21806377 -0.13577786 -0.12624645 0.21531004 0.018108629 0.07413664 0.026552372 -0.13235943 -0.16922666 -0.032580562 -0.14524712 -0.15000084 0.0071890336 0.1383292 0.16879247 0.06779353 -0.005112608 -0.17190365 0.10745126 0.015835386 0.04079876 -0.009901087 -0.11639101 0.16998602 -0.0023975603 0.19196951 0.010294157 -0.017266672 0.13293631 -0.013928275 -0.103002444 0.18172355 -0.04698654 -0.057848796 -0.14465879 -0.0038395228 0.07288622 -0.03670049 -0.16003667 -0.2560163 0.023207698 0.113532595 0.16378112 0.04172381 0.05843269 0.2342074 0.09889232 -0.063485846 -0.03546218 0.039837815 0.009945631 -0.032486927 0.08799451 0.026779167 0.110441186 0.019454341 0.04082324 -0.06429333 -0.040309075 0.10425329 -0.10197241 0.05081845 0.20611027 -0.0058336644 -0.18932453 -0.023462111 0.008958088 -0.13612732 -0.072957955 -0.07697831 0.17731303 0.22571704 -0.1506167
20 -0.070277914 0.0012377766 -0.005213794 0.08667897 -0.017392045 -0.25878277 0.04979496 -0.12693636 -0.041004766 -0.16339679 0.09493323 0.01934876 -0.030624097 0.022785604 0.1257092 0.18856892 -0.16496032 -0.07678897 -0.045749605 0.019657815 -0.013605424 0.008676795 0.02312763 0.2811203 -0.1434407 -0.043071795 0.11479883 -0.23672108 0.11274907 -0.01511249 -0.017442977 0.02194399 -0.029580364 0.017547328 0.114146374 -0.029081924 0.15730622 -0.036449112 0.0047122086 0.069007166 -0.15561467 -0.014146456 -0.2710038 -0.06302434 -0.035119753 -0.019852282 0.09385789 -0.10825032 -0.06527494 0.12803148 0.15558475 -0.115507044 -0.054349158 -0.03901887 -0.03501818 0.14858714 -0.13210672 -0.08472492 0.23977323 0.013821204 0.03838023 -0.026571058 -0.078205004 -0.15246217 -0.024766188 -0.1086468 -0.11555783 -0.012969837 0.13906933 0.15583463 0.08782855 0.024861217 -0.13166977 0.03058301 0.007434467 -0.025704551 0.003384891 -0.08291978 0.104647994 -0.01459276 0.19056618 -0.02530151 -0.008722241 0.10804756 0.04624143 -0.08623131 0.17775238 -0.037579462 -0.06930147 -0.11464582 -0.0032570537 0.06356655 -0.047018927 -0.10234189 -0.23283352 0.0622318 0.0650248 0.14070193 0.025536504 0.113027774 0.15543537 0.08027447 -0.062293112 -0.040492494 0.0616561 -0.046611197 -0.06329015 0.088675305 0.027906682 0.07147723 0.0048886864 0.0051972885 -0.041572835 -0.01995767 0.04562895 -0.058954693 0.06544262 0.18299793 -0.020023525 -0.21836793 -0.036749057 0.022154573 -0.089722455 -0.030548584 -0.056956895 0.13732539 0.1760452 -0.11457723
5 -0.0906252 0.029695343 -0.02182429 0.115871675 -0.016499894 -0.2047104 0.06744105 -0.07521845 0.017375562 -0.12583531 0.044986825 0.014644431 -0.062529534 0.05273017 0.22412542 0.12528783 -0.038404018 -0.07064483 -0.058602076 -0.022540014 0.019863835 0.032878358 0.0137599865 0.26457623 -0.18119569 -0.01711666 0.11464824 -0.18664773 0.06427864 -0.029286424 -0.059377212 0.08001071 -0.0174778 0.025298083 0.112021305 -0.017714908 0.11901937 -0.0049179867 -0.0028460948 0.10059389 -0.15131316 0.0072534927 -0.3203123 -0.03797952 0.008070876 -0.019477617 0.069292516 -0.18218078 -0.053855743 0.15716931 0.16543373 -0.068795845 -0.023827784 -0.06420531 -0.078845106 0.2140614 -0.13236715 -0.12866673 0.211802 0.025133703 0.079252146 0.026989501 -0.13162206 -0.16146916 -0.03623071 -0.14261554 -0.14994326 0.013658799 0.13636614 0.1668188 0.07160753 -0.008851099 -0.17231259 0.11098885 0.007887806 0.04926182 -0.01567066 -0.11912685 0.17620008 -0.005019106 0.17849855 0.021935219 -0.020317059 0.12967369 -0.015820524 -0.10463294 0.16989888 -0.05153364 -0.05110956 -0.14178677 -0.003565602 0.06584489 -0.04029349 -0.1649538 -0.24780853 0.021634711 0.11257892 0.16098598 0.043082163 0.0494908 0.23523146 0.09700217 -0.05676141 -0.033093654 0.03644226 0.010625736 -0.036669478 0.08196907 0.020757634 0.11666955 0.020942079 0.03689126 -0.062319443 -0.03767032 0.10174788 -0.096505515 0.04867019 0.19426404 -0.0072860103 -0.17997907 -0.02331769 -0.0005032857 -0.13533677 -0.073653154 -0.07437589 0.17253229 0.21918514 -0.14936441
16 -0.057419702 -0.012273012 0.0035985329 0.0699723 -0.017922679 -0.29197535 0.038555097 -0.14765154 -0.08057032 -0.17919327 0.12597767 0.014729646 -0.009907661 0.007951824 0.07003398 0.21867324 -0.2357761 -0.089172795 -0.04682714 0.04452552 -0.025577461 -0.0049046245 0.032040067 0.2856322 -0.12518871 -0.054779492 0.10691445 -0.26815075 0.13777755 -0.016675333 0.008194848 -0.009466317 -0.029719668 0.009679014 0.11402108 -0.042409778 0.18105738 -0.045895744 0.0047181165 0.048051495 -0.15808831 -0.01854331 -0.23785158 -0.068265304 -0.06532188 -0.02714995 0.105198056 -0.0712949 -0.07006357 0.111137696 0.14181328 -0.14822789 -0.06516133 -0.020391885 -0.006165152 0.11375094 -0.13550131 -0.06238171 0.2470008 0.01032214 0.018142829 -0.046797942 -0.056077134 -0.14187554 -0.020338353 -0.08937516 -0.089138195 -0.02101153 0.13795425 0.15326393 0.094776906 0.04225733 -0.10297149 -0.02255559 0.0059417086 -0.061471984 0.005129747 -0.057379507 0.064185835 -0.022843264 0.19730401 -0.039808135 0.007984599 0.08582626 0.08826603 -0.07964858 0.16884302 -0.032844048 -0.07360681 -0.09887923 -0.0030117899 0.06294665 -0.044312324 -0.063584305 -0.21696909 0.08286208 0.027392965 0.12961118 0.010468294 0.14297023 0.10456496 0.059899017 -0.057581704 -0.04849151 0.077486746 -0.07598718 -0.079939455 0.08761826 0.02289805 0.038478967 -0.006770669 -0.010953375 -0.028938765 -0.012740732 0.017698733 -0.034795847 0.07940036 0.17063604 -0.02808319 -0.23336898 -0.04445918 0.03433498 -0.05850599 -0.0040044175 -0.04272789 0.12077911 0.1491521 -0.08938953
22 -0.079173855 0.012483015 -0.0039268765 0.10251121 -0.013751322 -0.22427827 0.0580516 -0.09981514 -0.0023076562 -0.13967656 0.06115597 0.015807632 -0.04965166 0.034073956 0.17054 0.14904393 -0.09356809 -0.068518534 -0.04540424 0.006710843 0.004373711 0.02072832 0.011990886 0.26414996 -0.16242303 -0.026463578 0.117919 -0.20126262 0.07772776 -0.021898992 -0.035689626 0.04532747 -0.033926573 0.027157858 0.10903246 -0.019294856 0.12790033 -0.02681596 0.004996589 0.0768733 -0.14890589 -0.012864937 -0.2841878 -0.04811576 -0.0148551585 -0.019876644 0.081534564 -0.14370477 -0.056798607 0.14448604 0.16288263 -0.08624233 -0.038392257 -0.048875775 -0.051728766 0.17803161 -0.1272607 -0.09316995 0.2193881 0.011135776 0.053704992 0.00044052818 -0.10063555 -0.15158857 -0.02191086 -0.12394934 -0.12374414 -0.004616217 0.1262784 0.15314345 0.06960053 0.0069346717 -0.14294071 0.07249273 0.0066450257 0.018654583 -0.0055472003 -0.094964005 0.13662116 -0.01013607 0.17451757 -0.0061540357 -0.021033347 0.1152643 0.007872085 -0.07874068 0.17403062 -0.04209406 -0.058594584 -0.12338894 0.0015551159 0.064951114 -0.03884135 -0.1200014 -0.22434805 0.03633175 0.0920799 0.14578174 0.03843559 0.071837105 0.18405662 0.088176176 -0.054361604 -0.04369474 0.040869873 -0.018389547 -0.040971525 0.08236136 0.024167577 0.09370739 0.012709229 0.026311198 -0.047990892 -0.023703462 0.07228678 -0.079473116 0.05746784 0.17974418 -0.009330947 -0.19154656 -0.030086206 0.012857297 -0.10722928 -0.05065788 -0.06708516 0.14859967 0.19480407 -0.12510338
15 -0.050209038 -0.01807016 0.004113522 0.07623647 -0.0228565 -0.29617453 0.036977474 -0.14810294 -0.08455968 -0.17859194 0.12957674 0.018979546 -0.013461688 0.009029098 0.06583751 0.22268283 -0.24786408 -0.09066958 -0.045620203 0.043500975 -0.03210628 -0.0077724946 0.02884893 0.2896942 -0.12489481 -0.05735932 0.108567916 -0.27409664 0.14861564 -0.014059119 0.008023489 -0.014462462 -0.033535566 0.0022821715 0.11733338 -0.04471254 0.18284065 -0.04915378 -0.003869098 0.052167617 -0.16237742 -0.016077321 -0.24338774 -0.072754316 -0.06588286 -0.026255349 0.101807654 -0.07163373 -0.07200497 0.110197715 0.14374804 -0.15645938 -0.067605704 -0.023214877 -0.0024578755 0.113694794 -0.14481239 -0.05412584 0.25883466 0.0031449394 0.020511815 -0.054428946 -0.05690639 -0.14414378 -0.014481033 -0.086176865 -0.094049886 -0.015874645 0.14406504 0.15455714 0.09598668 0.04828099 -0.10291295 -0.023005225 0.0030470304 -0.061781466 0.005195182 -0.057091493 0.06727815 -0.02232537 0.2000409 -0.04703702 0.006166693 0.087971166 0.08952333 -0.07321221 0.1717766 -0.029615832 -0.08070194 -0.10509991 -0.0059126415 0.06555014 -0.044401105 -0.0640316 -0.21952118 0.082062654 0.02776491 0.12975524 0.01332284 0.14907397 0.10770016 0.064161465 -0.05699953 -0.042424683 0.07459208 -0.07912186 -0.08233153 0.08906429 0.029941866 0.035560932 -0.0057851784 -0.016749188 -0.03042421 -0.009371167 0.011613555 -0.037430212 0.07821768 0.16691135 -0.030960154 -0.23336384 -0.041325912 0.038263194 -0.06036454 0.0004406309 -0.039385103 0.1203299 0.15214206 -0.08683268
23 -0.052916598 -0.01151736 0.004349935 0.073635764 -0.0224371 -0.2945083 0.041532658 -0.14922139 -0.076816425 -0.17847693 0.123053394 0.011453 -0.014415263 0.006972225 0.076337904 0.214817 -0.22986965 -0.08876206 -0.04896781 0.0454395 -0.025998054 -0.00089257763 0.024327489 0.28367636 -0.13353269 -0.052133426 0.10701138 -0.2667673 0.13940735 -0.014444475 0.005708074 -0.011884601 -0.037867017 0.005205246 0.1200238 -0.042782284 0.18060367 -0.04614805 0.00021767938 0.05819038 -0.15986338 -0.018835627 -0.2480632 -0.073715635 -0.06491414 -0.025020273 0.105710976 -0.07709289 -0.06734407 0.1166599 0.1430115 -0.149364 -0.07078796 -0.02329611 -0.013216567 0.12254816 -0.13995907 -0.064992696 0.25050193 0.0040183105 0.027966408 -0.05024879 -0.057720743 -0.14418018 -0.014903752 -0.092733204 -0.094004616 -0.019420896 0.14240037 0.15523465 0.09764501 0.039876867 -0.11068196 -0.01417726 0.0053866887 -0.0590833 0.003784263 -0.059443507 0.07830279 -0.024359632 0.1986894 -0.043401413 0.0038948026 0.08906726 0.081032865 -0.08099568 0.17756851 -0.030752506 -0.07644089 -0.10592114 -0.0057310737 0.06700747 -0.045493796 -0.06720155 -0.22532023 0.078715876 0.034357134 0.13671634 0.019875424 0.1384387 0.11282044 0.068605095 -0.063041925 -0.049197543 0.07726685 -0.075533465 -0.07908974 0.08933052 0.022700166 0.044830382 -0.0029390499 -0.0075759073 -0.029149612 -0.009341496 0.023744218 -0.04541745 0.07912935 0.1735472 -0.029114379 -0.23789081 -0.043771695 0.034892563 -0.06423941 -0.0062085874 -0.042318955 0.124360576 0.16202301 -0.10121757
19 -0.04519023 -0.019390702 0.008017645 0.06893352 -0.022747157 -0.31158575 0.039546665 -0.15765637 -0.09412861 -0.19044755 0.13502893 0.017347232 -0.0014865731 -0.0018146267 0.04960104 0.2339651 -0.2703109 -0.08578762 -0.049463034 0.05036723 -0.037298594 -0.0069700675 0.028578963 0.2895704 -0.12051883 -0.061038733 0.10848952 -0.28361943 0.15169661 -0.009888482 0.017160796 -0.028161375 -0.035265405 0.0015442609 0.12133609 -0.04958384 0.19290493 -0.053823974 0.0032390833 0.049285788 -0.16260271 -0.017788777 -0.22609448 -0.07431762 -0.07428085 -0.02973338 0.110682115 -0.052390106 -0.06925765 0.104916774 0.14123043 -0.16338904 -0.0773263 -0.016267182 0.0016830256 0.09906153 -0.14131619 -0.050862893 0.25619596 0.008072661 0.011115769 -0.06343358 -0.040584538 -0.13860747 -0.013300368 -0.08169787 -0.08645343 -0.025082896 0.14291668 0.14751948 0.09608554 0.048055537 -0.09266504 -0.04173079 0.009784693 -0.08100625 0.011208186 -0.050213184 0.04909995 -0.02628327 0.20195231 -0.05011441 0.014501969 0.078705035 0.10179636 -0.07283276 0.1706401 -0.024377575 -0.07444575 -0.1029584 -0.006371031 0.06318015 -0.048565295 -0.051065248 -0.21698233 0.08942135 0.01786962 0.12277561 0.013275728 0.1613899 0.09240503 0.057490405 -0.061617587 -0.04971915 0.08304553 -0.092498764 -0.08579522 0.0913407 0.028902091 0.029528955 -0.007308364 -0.017451404 -0.026641792 -0.0106951175 0.0017083097 -0.027219446 0.08124317 0.16471788 -0.034164377 -0.24451819 -0.043535475 0.03958528 -0.050332505 0.007816485 -0.040877316 0.10980731 0.14223608 -0.0806256
18 -0.062245063 0.005881827 -0.0034180675 0.08761355 -0.014900927 -0.24296744 0.05190902 -0.11758261 -0.031948216 -0.14903897 0.08397103 0.015034444 -0.029782593 0.021606272 0.12798959 0.17014387 -0.14200391 -0.0703653 -0.0417482 0.023478134 -0.010573822 0.012417851 0.021084748 0.26371408 -0.13805696 -0.034994263 0.110992506 -0.22155409 0.10280111 -0.014586495 -0.017461577 0.02362743 -0.028893294 0.017341774 0.11031498 -0.023983456 0.14577825 -0.034596585 0.0049464265 0.06461645 -0.1431712 -0.01416911 -0.26257184 -0.052851435 -0.035408136 -0.025212869 0.088628896 -0.1125083 -0.058854703 0.124511145 0.14457606 -0.10770646 -0.048441663 -0.04008873 -0.036944147 0.15222786 -0.12684076 -0.080195956 0.22574794 0.013706096 0.04216137 -0.017690917 -0.084801726 -0.14410527 -0.019057527 -0.109230936 -0.110961825 -0.013407737 0.12862298 0.15389755 0.07648913 0.017000375 -0.12393115 0.0364211 0.009061908 -0.015990388 0.0010660506 -0.08419691 0.105255984 -0.016878841 0.1788046 -0.020414079 -0.0033806409 0.10412742 0.04178643 -0.07860539 0.16889785 -0.040946607 -0.06290639 -0.11541039 -0.0067060133 0.06118571 -0.04276509 -0.1011332 -0.21913208 0.052060436 0.06916475 0.13677631 0.028669054 0.10153976 0.15160994 0.08017026 -0.05573672 -0.044637572 0.057962526 -0.04049437 -0.06003834 0.08514323 0.025035111 0.07531833 0.00051503646 0.011250392 -0.04254929 -0.024915382 0.050984703 -0.0603699 0.0656638 0.17785631 -0.014443487 -0.2040324 -0.032842856 0.023185696 -0.08592705 -0.03810994 -0.057333633 0.13452257 0.17252922 -0.11229226
13 -0.08130854 0.019440193 -0.009092048 0.09906692 -0.017702283 -0.21770597 0.057570502 -0.09383339 0.0047752643 -0.14464581 0.06000773 0.015939219 -0.04394026 0.032718897 0.17830703 0.15507601 -0.08902986 -0.070250385 -0.051450703 0.0028981336 0.009433443 0.0271801 0.015734026 0.2706572 -0.16361088 -0.0235053 0.1199375 -0.20544952 0.085595794 -0.020598331 -0.040495902 0.047822174 -0.022977218 0.025359182 0.10820004 -0.018808087 0.13047296 -0.027305631 -0.00043713837 0.08248456 -0.14625773 -0.0038887206 -0.30091384 -0.048621655 -0.012311016 -0.02199095 0.07682861 -0.15196814 -0.05569758 0.14323103 0.17023131 -0.08888859 -0.038917918 -0.051959936 -0.063793086 0.18747273 -0.12900095 -0.10297394 0.22853628 0.016255423 0.06274796 0.0010514278 -0.11133076 -0.16238135 -0.027387576 -0.1277851 -0.13245843 -0.007217984 0.14215262 0.15923512 0.07871844 0.0042194235 -0.15417543 0.07905054 0.013114712 0.015190356 -0.0006947723 -0.102370776 0.14397329 -0.0066616563 0.18806136 -0.007518805 -0.01875874 0.12885317 0.0073416834 -0.08824833 0.18558381 -0.04723267 -0.065790355 -0.1354999 0.00028116038 0.078844376 -0.036425322 -0.1340937 -0.24981363 0.043361403 0.10139905 0.15949191 0.0419237 0.07650292 0.19953188 0.096315406 -0.063190155 -0.040642817 0.051160213 -0.015336733 -0.043852482 0.08611169 0.026522804 0.09937802 0.016212601 0.026725464 -0.053052537 -0.031469487 0.07622981 -0.0926934 0.057191174 0.19754416 -0.0056820484 -0.20252642 -0.028452791 0.0116079915 -0.11544092 -0.058933504 -0.075934574 0.16245638 0.20306896 -0.13785018
21 -0.05414421 -0.016603436 0.008923736 0.07653444 -0.024846282 -0.31317404 0.04387975 -0.16178562 -0.084729165 -0.18901803 0.12656167 0.013727601 -0.011383821 0.005770172 0.06616888 0.22885947 -0.25410846 -0.09244283 -0.04519869 0.04802825 -0.033114124 -0.0055164243 0.024330098 0.29951164 -0.13518625 -0.060945913 0.113704845 -0.2812663 0.15041861 -0.017671097 0.012118694 -0.014466139 -0.043786015 0.006006182 0.12615164 -0.047338564 0.18870187 -0.051027577 0.00035607142 0.049885903 -0.16820985 -0.018475244 -0.2472947 -0.080567226 -0.07111656 -0.024531785 0.108164795 -0.068625316 -0.070480876 0.115085855 0.14286667 -0.15314484 -0.07672833 -0.02354425 -0.003310915 0.11523613 -0.14192374 -0.051967654 0.26199096 0.00837406 0.022311319 -0.060234606 -0.05090399 -0.14755 -0.015356652 -0.09132547 -0.08821964 -0.023102876 0.13826269 0.15821661 0.10021459 0.049349155 -0.104617946 -0.020317776 0.0021180466 -0.0667815 0.0041119247 -0.05370344 0.06700535 -0.02724704 0.1980446 -0.045109514 0.0023433878 0.08316857 0.09457206 -0.07607737 0.18249474 -0.03043905 -0.077222645 -0.101863675 -0.006386746 0.06528209 -0.05258499 -0.056504093 -0.22599413 0.08828237 0.03277494 0.12662514 0.015305133 0.15221234 0.10308061 0.06566642 -0.0570106 -0.047340866 0.07689808 -0.08698157 -0.07667174 0.089081176 0.030470816 0.042903814 -0.006349797 -0.008828834 -0.026099432 -0.0069211195 0.017377874 -0.04005571 0.080322064 0.17482258 -0.03137993 -0.24049093 -0.04364684 0.034866672 -0.06081253 0.002461668 -0.039780367 0.12505646 0.15420684 -0.08817734
17 -0.10093518 0.048983153 -0.030379644 0.13283168 -0.016365401 -0.17694253 0.076460004 -0.061576873 0.0487597 -0.11603312 0.020103093 0.02037804 -0.07492601 0.06825768 0.2736274 0.09313245 0.024375353 -0.0721512 -0.064902246 -0.044815697 0.03888719 0.04282273 0.012531706 0.25876227 -0.19882075 -0.0067779613 0.11761221 -0.16152813 0.047526877 -0.027637826 -0.081395864 0.1090529 -0.017403698 0.028693033 0.107112154 -0.0115267215 0.10090395 0.0047202143 0.001475402 0.11831056 -0.14810897 0.015260263 -0.34594953 -0.03430591 0.021862684 -0.013011395 0.061537288 -0.2177142 -0.052773096 0.17052294 0.17660135 -0.045247898 -0.011080011 -0.08548205 -0.09591538 0.24309678 -0.13918747 -0.15453288 0.19674696 0.027533181 0.09874954 0.055802274 -0.15633352 -0.17017557 -0.04809981 -0.15248092 -0.16596934 0.0225931 0.13325739 0.17589913 0.063977025 -0.017029963 -0.19816023 0.14850678 0.008190476 0.0783895 -0.025022166 -0.131707 0.21261579 0.003708907 0.17996088 0.04056683 -0.03301792 0.13530122 -0.05171073 -0.113943584 0.17029433 -0.061590783 -0.04801911 -0.15286772 -0.0044529657 0.0715742 -0.039021287 -0.19725807 -0.263531 0.004474884 0.13889417 0.17470545 0.045403767 0.024258468 0.28026322 0.11196524 -0.05869271 -0.025800223 0.032389753 0.040307723 -0.027620694 0.07702649 0.020868272 0.13445657 0.02721974 0.051488403 -0.07441437 -0.051903196 0.1342932 -0.110465206 0.03840842 0.20642228 -0.0030424583 -0.17022078 -0.012875113 -0.0074278796 -0.16224468 -0.09993129 -0.08063862 0.19017847 0.2510414 -0.1633822
27 -0.051330633 -0.012474025 0.0060129804 0.077161305 -0.020452064 -0.29930255 0.039516117 -0.15173644 -0.07856352 -0.18783686 0.12644772 0.014969867 -0.010098384 0.007297457 0.06548731 0.22499642 -0.24589105 -0.09326241 -0.044181086 0.045052774 -0.027696075 -0.0017370279 0.034111332 0.293679 -0.13336235 -0.060669415 0.10769954 -0.2724433 0.15250114 -0.010308035 0.009576129 -0.019028272 -0.035186756 0.007294967 0.123887464 -0.045658924 0.19097292 -0.051954858 -0.0022359856 0.055031214 -0.16257562 -0.017833149 -0.24524511 -0.07313475 -0.06763992 -0.026549306 0.106488764 -0.07186292 -0.06924838 0.11131926 0.14928979 -0.15645762 -0.067605205 -0.021086197 -0.0112617165 0.11482182 -0.13909483 -0.058177166 0.25622225 0.0069727735 0.016566683 -0.057519127 -0.054543853 -0.14784473 -0.015431365 -0.08746846 -0.09266449 -0.019504346 0.14635685 0.15207745 0.09429107 0.047020964 -0.10668774 -0.019228438 0.00927228 -0.06264653 0.008040654 -0.05459741 0.063510284 -0.02676845 0.20452961 -0.045069125 0.009597847 0.08532134 0.09610276 -0.07475133 0.17270108 -0.026888154 -0.07863742 -0.10889099 -0.00095072243 0.070240185 -0.047575586 -0.06713343 -0.22835653 0.0844439 0.031015253 0.13271236 0.017569495 0.15479691 0.109493025 0.0627018 -0.06013013 -0.04433121 0.0787191 -0.081336014 -0.08106574 0.08872848 0.029374043 0.043771148 -0.0018559769 -0.01211942 -0.028119154 -0.010432976 0.018027145 -0.04262306 0.08293127 0.16996163 -0.031001791 -0.24284734 -0.039084196 0.033522096 -0.060091957 -0.0021534362 -0.040800866 0.12113863 0.15502682 -0.08895171
10 -0.065089814 -0.001907635 -0.0010916194 0.08561985 -0.0149152735 -0.2612329 0.049483497 -0.12426826 -0.045376115 -0.16487336 0.10274614 0.01710348 -0.028859248 0.017167913 0.11074671 0.19763261 -0.1728132 -0.08393704 -0.045875072 0.026342832 -0.014999702 0.004771028 0.02451956 0.2849277 -0.1378689 -0.045373578 0.11620193 -0.24290948 0.118132256 -0.01758788 -0.014714504 0.009188145 -0.02704873 0.013499346 0.11511944 -0.034512434 0.1633012 -0.041399702 0.0033979276 0.06232282 -0.15493834 -0.014551147 -0.2679753 -0.06118471 -0.039266285 -0.020847369 0.09661549 -0.10576967 -0.06455793 0.13088188 0.15559268 -0.12409784 -0.05534741 -0.03484278 -0.032170586 0.15266094 -0.13660558 -0.076271 0.24528447 0.010931864 0.035764076 -0.02399206 -0.07734524 -0.15600938 -0.024135225 -0.11177294 -0.11247228 -0.0120536275 0.14053376 0.1618022 0.08551568 0.023781009 -0.12448017 0.018610809 0.012604565 -0.0320681 0.0055453354 -0.074302174 0.10184599 -0.02181541 0.19801055 -0.02372048 0.0003396588 0.105339326 0.05194966 -0.07977811 0.18174376 -0.03369512 -0.071530275 -0.118594676 -0.0022800432 0.06817077 -0.042042546 -0.09492555 -0.236125 0.0682499 0.05590638 0.14374101 0.026359677 0.112730026 0.14281696 0.075352855 -0.056829035 -0.04800062 0.06642297 -0.05174917 -0.06294725 0.08952706 0.027169982 0.06731801 0.0018175485 0.002989131 -0.039466668 -0.020442624 0.04052991 -0.059156235 0.07013741 0.18318109 -0.022478893 -0.21813445 -0.037824526 0.022746392 -0.07995418 -0.030624542 -0.059777286 0.13554595 0.17512353 -0.113112584
12 -0.08044463 0.015407036 -0.009766215 0.10799202 -0.016368452 -0.25012922 0.0589125 -0.11414132 -0.0143402 -0.1564052 0.07528449 0.01950957 -0.04349116 0.03179933 0.16870534 0.17885932 -0.12270357 -0.07635647 -0.054648623 0.011813072 0.0041751945 0.019020937 0.018014463 0.29014516 -0.17032164 -0.037093405 0.12295891 -0.23013118 0.098452814 -0.023076085 -0.03623819 0.043586377 -0.029624857 0.022788586 0.11756347 -0.021863261 0.15300786 -0.02880512 -0.0019721296 0.07997776 -0.16309293 -0.00918747 -0.3118682 -0.060972523 -0.023151226 -0.019182453 0.08913582 -0.14650173 -0.060651187 0.14649016 0.17746465 -0.10573713 -0.045165256 -0.052236885 -0.056805853 0.18929748 -0.14648604 -0.10172025 0.24752983 0.018067736 0.05722568 -0.0028191898 -0.11172813 -0.1718272 -0.028670093 -0.1297776 -0.13822302 -0.0062608095 0.14577274 0.1721917 0.084769554 0.017705966 -0.15260725 0.06344548 0.013647868 0.0046438402 -0.0029521296 -0.09853712 0.1428141 -0.008414766 0.20330302 -0.012809369 -0.014462219 0.12694404 0.026142232 -0.092055164 0.18920308 -0.043074057 -0.069492705 -0.13149378 -0.0009194146 0.07740397 -0.040997036 -0.13178489 -0.25661528 0.05057262 0.09380718 0.15994634 0.035995353 0.09725689 0.18904373 0.08849867 -0.060453456 -0.04200825 0.055297606 -0.02569466 -0.051499255 0.09259546 0.027671026 0.0925728 0.0115657905 0.021637037 -0.055559576 -0.029817974 0.07465155 -0.08022997 0.061898373 0.20159717 -0.009485168 -0.21966463 -0.030709283 0.015379914 -0.11146691 -0.05539367 -0.0716361 0.16393481 0.21030067 -0.13628815
